{"learner":{"attributes":{"scikit_learn":"{\"_estimator_type\": \"classifier\"}"},"feature_names":[],"feature_types":[],"gradient_booster":{"model":{"gbtree_model_param":{"num_parallel_tree":"1","num_trees":"1500"},"iteration_indptr":[0,3,6,9,12,15,18,21,24,27,30,33,36,39,42,45,48,51,54,57,60,63,66,69,72,75,78,81,84,87,90,93,96,99,102,105,108,111,114,117,120,123,126,129,132,135,138,141,144,147,150,153,156,159,162,165,168,171,174,177,180,183,186,189,192,195,198,201,204,207,210,213,216,219,222,225,228,231,234,237,240,243,246,249,252,255,258,261,264,267,270,273,276,279,282,285,288,291,294,297,300,303,306,309,312,315,318,321,324,327,330,333,336,339,342,345,348,351,354,357,360,363,366,369,372,375,378,381,384,387,390,393,396,399,402,405,408,411,414,417,420,423,426,429,432,435,438,441,444,447,450,453,456,459,462,465,468,471,474,477,480,483,486,489,492,495,498,501,504,507,510,513,516,519,522,525,528,531,534,537,540,543,546,549,552,555,558,561,564,567,570,573,576,579,582,585,588,591,594,597,600,603,606,609,612,615,618,621,624,627,630,633,636,639,642,645,648,651,654,657,660,663,666,669,672,675,678,681,684,687,690,693,696,699,702,705,708,711,714,717,720,723,726,729,732,735,738,741,744,747,750,753,756,759,762,765,768,771,774,777,780,783,786,789,792,795,798,801,804,807,810,813,816,819,822,825,828,831,834,837,840,843,846,849,852,855,858,861,864,867,870,873,876,879,882,885,888,891,894,897,900,903,906,909,912,915,918,921,924,927,930,933,936,939,942,945,948,951,954,957,960,963,966,969,972,975,978,981,984,987,990,993,996,999,1002,1005,1008,1011,1014,1017,1020,1023,1026,1029,1032,1035,1038,1041,1044,1047,1050,1053,1056,1059,1062,1065,1068,1071,1074,1077,1080,1083,1086,1089,1092,1095,1098,1101,1104,1107,1110,1113,1116,1119,1122,1125,1128,1131,1134,1137,1140,1143,1146,1149,1152,1155,1158,1161,1164,1167,1170,1173,1176,1179,1182,1185,1188,1191,1194,1197,1200,1203,1206,1209,1212,1215,1218,1221,1224,1227,1230,1233,1236,1239,1242,1245,1248,1251,1254,1257,1260,1263,1266,1269,1272,1275,1278,1281,1284,1287,1290,1293,1296,1299,1302,1305,1308,1311,1314,1317,1320,1323,1326,1329,1332,1335,1338,1341,1344,1347,1350,1353,1356,1359,1362,1365,1368,1371,1374,1377,1380,1383,1386,1389,1392,1395,1398,1401,1404,1407,1410,1413,1416,1419,1422,1425,1428,1431,1434,1437,1440,1443,1446,1449,1452,1455,1458,1461,1464,1467,1470,1473,1476,1479,1482,1485,1488,1491,1494,1497,1500],"tree_info":[0,1,2,0,1,2,0,1,2,0,1,2,0,1,2,0,1,2,0,1,2,0,1,2,0,1,2,0,1,2,0,1,2,0,1,2,0,1,2,0,1,2,0,1,2,0,1,2,0,1,2,0,1,2,0,1,2,0,1,2,0,1,2,0,1,2,0,1,2,0,1,2,0,1,2,0,1,2,0,1,2,0,1,2,0,1,2,0,1,2,0,1,2,0,1,2,0,1,2,0,1,2,0,1,2,0,1,2,0,1,2,0,1,2,0,1,2,0,1,2,0,1,2,0,1,2,0,1,2,0,1,2,0,1,2,0,1,2,0,1,2,0,1,2,0,1,2,0,1,2,0,1,2,0,1,2,0,1,2,0,1,2,0,1,2,0,1,2,0,1,2,0,1,2,0,1,2,0,1,2,0,1,2,0,1,2,0,1,2,0,1,2,0,1,2,0,1,2,0,1,2,0,1,2,0,1,2,0,1,2,0,1,2,0,1,2,0,1,2,0,1,2,0,1,2,0,1,2,0,1,2,0,1,2,0,1,2,0,1,2,0,1,2,0,1,2,0,1,2,0,1,2,0,1,2,0,1,2,0,1,2,0,1,2,0,1,2,0,1,2,0,1,2,0,1,2,0,1,2,0,1,2,0,1,2,0,1,2,0,1,2,0,1,2,0,1,2,0,1,2,0,1,2,0,1,2,0,1,2,0,1,2,0,1,2,0,1,2,0,1,2,0,1,2,0,1,2,0,1,2,0,1,2,0,1,2,0,1,2,0,1,2,0,1,2,0,1,2,0,1,2,0,1,2,0,1,2,0,1,2,0,1,2,0,1,2,0,1,2,0,1,2,0,1,2,0,1,2,0,1,2,0,1,2,0,1,2,0,1,2,0,1,2,0,1,2,0,1,2,0,1,2,0,1,2,0,1,2,0,1,2,0,1,2,0,1,2,0,1,2,0,1,2,0,1,2,0,1,2,0,1,2,0,1,2,0,1,2,0,1,2,0,1,2,0,1,2,0,1,2,0,1,2,0,1,2,0,1,2,0,1,2,0,1,2,0,1,2,0,1,2,0,1,2,0,1,2,0,1,2,0,1,2,0,1,2,0,1,2,0,1,2,0,1,2,0,1,2,0,1,2,0,1,2,0,1,2,0,1,2,0,1,2,0,1,2,0,1,2,0,1,2,0,1,2,0,1,2,0,1,2,0,1,2,0,1,2,0,1,2,0,1,2,0,1,2,0,1,2,0,1,2,0,1,2,0,1,2,0,1,2,0,1,2,0,1,2,0,1,2,0,1,2,0,1,2,0,1,2,0,1,2,0,1,2,0,1,2,0,1,2,0,1,2,0,1,2,0,1,2,0,1,2,0,1,2,0,1,2,0,1,2,0,1,2,0,1,2,0,1,2,0,1,2,0,1,2,0,1,2,0,1,2,0,1,2,0,1,2,0,1,2,0,1,2,0,1,2,0,1,2,0,1,2,0,1,2,0,1,2,0,1,2,0,1,2,0,1,2,0,1,2,0,1,2,0,1,2,0,1,2,0,1,2,0,1,2,0,1,2,0,1,2,0,1,2,0,1,2,0,1,2,0,1,2,0,1,2,0,1,2,0,1,2,0,1,2,0,1,2,0,1,2,0,1,2,0,1,2,0,1,2,0,1,2,0,1,2,0,1,2,0,1,2,0,1,2,0,1,2,0,1,2,0,1,2,0,1,2,0,1,2,0,1,2,0,1,2,0,1,2,0,1,2,0,1,2,0,1,2,0,1,2,0,1,2,0,1,2,0,1,2,0,1,2,0,1,2,0,1,2,0,1,2,0,1,2,0,1,2,0,1,2,0,1,2,0,1,2,0,1,2,0,1,2,0,1,2,0,1,2,0,1,2,0,1,2,0,1,2,0,1,2,0,1,2,0,1,2,0,1,2,0,1,2,0,1,2,0,1,2,0,1,2,0,1,2,0,1,2,0,1,2,0,1,2,0,1,2,0,1,2,0,1,2,0,1,2,0,1,2,0,1,2,0,1,2,0,1,2,0,1,2,0,1,2,0,1,2,0,1,2,0,1,2,0,1,2,0,1,2,0,1,2,0,1,2,0,1,2,0,1,2,0,1,2,0,1,2,0,1,2,0,1,2,0,1,2,0,1,2,0,1,2,0,1,2,0,1,2,0,1,2,0,1,2,0,1,2,0,1,2,0,1,2,0,1,2,0,1,2,0,1,2,0,1,2,0,1,2,0,1,2,0,1,2,0,1,2,0,1,2,0,1,2,0,1,2,0,1,2,0,1,2,0,1,2,0,1,2,0,1,2,0,1,2,0,1,2,0,1,2,0,1,2,0,1,2,0,1,2,0,1,2,0,1,2,0,1,2,0,1,2,0,1,2,0,1,2,0,1,2,0,1,2,0,1,2,0,1,2,0,1,2,0,1,2,0,1,2,0,1,2,0,1,2,0,1,2,0,1,2,0,1,2,0,1,2,0,1,2,0,1,2,0,1,2,0,1,2,0,1,2,0,1,2,0,1,2,0,1,2,0,1,2,0,1,2,0,1,2,0,1,2,0,1,2,0,1,2,0,1,2,0,1,2,0,1,2,0,1,2,0,1,2,0,1,2,0,1,2,0,1,2,0,1,2,0,1,2,0,1,2,0,1,2,0,1,2,0,1,2,0,1,2,0,1,2,0,1,2,0,1,2,0,1,2,0,1,2,0,1,2,0,1,2,0,1,2,0,1,2,0,1,2,0,1,2,0,1,2,0,1,2,0,1,2,0,1,2,0,1,2,0,1,2,0,1,2,0,1,2,0,1,2,0,1,2,0,1,2,0,1,2,0,1,2,0,1,2,0,1,2,0,1,2,0,1,2,0,1,2,0,1,2,0,1,2,0,1,2,0,1,2,0,1,2,0,1,2,0,1,2,0,1,2,0,1,2,0,1,2,0,1,2,0,1,2,0,1,2,0,1,2,0,1,2,0,1,2,0,1,2,0,1,2,0,1,2,0,1,2,0,1,2,0,1,2,0,1,2,0,1,2,0,1,2,0,1,2,0,1,2,0,1,2,0,1,2,0,1,2,0,1,2,0,1,2,0,1,2,0,1,2,0,1,2,0,1,2,0,1,2,0,1,2,0,1,2,0,1,2,0,1,2,0,1,2,0,1,2,0,1,2,0,1,2,0,1,2,0,1,2,0,1,2,0,1,2,0,1,2,0,1,2,0,1,2,0,1,2,0,1,2,0,1,2,0,1,2,0,1,2,0,1,2,0,1,2,0,1,2,0,1,2,0,1,2,0,1,2,0,1,2,0,1,2,0,1,2,0,1,2,0,1,2,0,1,2,0,1,2,0,1,2,0,1,2,0,1,2,0,1,2,0,1,2,0,1,2],"trees":[{"base_weights":[-6.9378805E-4,1.9898072E-1,-1.670255E-2,1.7367756E-1,4.4168258E-1,-2.5920266E-2,2.2567031E-1,2.6449242E-3,1.224569E-3,3.1168826E-3,5.284825E-3,-3.6391485E-4,9.7397825E-4,1.9075255E-3,4.017949E-3],"categories":[],"categories_nodes":[],"categories_segments":[],"categories_sizes":[],"default_left":[0,0,0,0,0,0,0,0,0,0,0,0,0,0,0],"id":0,"left_children":[1,3,5,7,9,11,13,-1,-1,-1,-1,-1,-1,-1,-1],"loss_changes":[1.8874889E2,2.5913528E1,1.2208598E2,1.7967041E1,2.926094E0,6.804116E1,1.13328705E1,0E0,0E0,0E0,0E0,0E0,0E0,0E0,0E0],"parents":[2147483647,0,0,1,1,2,2,3,3,4,4,5,5,6,6],"right_children":[2,4,6,8,10,12,14,-1,-1,-1,-1,-1,-1,-1,-1],"split_conditions":[-1.2803649E0,1.6435564E0,1.7103648E0,-2.090422E0,-1.0079497E0,9.703229E-1,2.83726E0,2.6449242E-3,1.224569E-3,3.1168826E-3,5.284825E-3,-3.6391485E-4,9.7397825E-4,1.9075255E-3,4.017949E-3],"split_indices":[7,0,6,7,1,0,7,0,0,0,0,0,0,0,0],"split_type":[0,0,0,0,0,0,0,0,0,0,0,0,0,0,0],"sum_hessian":[5.9094664E4,4.377333E3,5.471733E4,3.9755554E3,4.0177774E2,5.2720887E4,1.9964443E3,1.4191111E3,2.5564443E3,1.7466666E2,2.271111E2,4.8605332E4,4.115555E3,1.6795554E3,3.1688885E2],"tree_param":{"num_deleted":"0","num_feature":"17","num_nodes":"15","size_leaf_vector":"1"}},{"base_weights":[5.743864E-4,-3.0102918E-1,4.6846848E-2,-4.829737E-1,-2.3508649E-1,7.130154E-2,-1.4160182E-1,-4.15359E-3,-5.2226726E-3,-2.0952364E-3,-3.873326E-3,-1.050448E-3,1.0527171E-3,-6.88261E-4,-2.2654044E-3],"categories":[],"categories_nodes":[],"categories_segments":[],"categories_sizes":[],"default_left":[0,0,0,0,0,0,0,0,0,0,0,0,0,0,0],"id":1,"left_children":[1,3,5,7,9,11,13,-1,-1,-1,-1,-1,-1,-1,-1],"loss_changes":[8.258544E2,9.3147095E1,2.3650087E2,3.5171814E0,2.153418E1,2.722412E2,3.6048584E1,0E0,0E0,0E0,0E0,0E0,0E0,0E0,0E0],"parents":[2147483647,0,0,1,1,2,2,3,3,4,4,5,5,6,6],"right_children":[2,4,6,8,10,12,14,-1,-1,-1,-1,-1,-1,-1,-1],"split_conditions":[-8.821658E-1,-1.8665266E0,8.980194E-1,-1.5349866E0,-2.8388745E-1,-5.999905E-1,1.3581038E0,-4.15359E-3,-5.2226726E-3,-2.0952364E-3,-3.873326E-3,-1.050448E-3,1.0527171E-3,-6.88261E-4,-2.2654044E-3],"split_indices":[7,7,11,1,2,11,11,0,0,0,0,0,0,0,0],"split_type":[0,0,0,0,0,0,0,0,0,0,0,0,0,0,0],"sum_hessian":[5.9183996E4,7.8657773E3,5.131822E4,2.0799998E3,5.7857773E3,4.543111E4,5.887111E3,7.951111E2,1.2848888E3,4.9697773E3,8.1599994E2,7.331555E3,3.8099555E4,3.1817776E3,2.7053333E3],"tree_param":{"num_deleted":"0","num_feature":"17","num_nodes":"15","size_leaf_vector":"1"}},{"base_weights":[-2.7085934E-4,1.4685838E-1,-3.251478E-2,2.3421013E-1,9.2188545E-2,8.4790155E-2,-5.0378073E-2,1.3468328E-3,2.7940294E-3,1.3860861E-3,5.343696E-4,7.9051894E-4,3.8926825E-3,-1.2308365E-4,-8.5206877E-4],"categories":[],"categories_nodes":[],"categories_segments":[],"categories_sizes":[],"default_left":[0,0,0,0,0,0,0,0,0,0,0,0,0,0,0],"id":2,"left_children":[1,3,5,7,9,11,13,-1,-1,-1,-1,-1,-1,-1,-1],"loss_changes":[2.8019116E2,5.0260803E1,1.01554214E2,1.7731674E1,1.1543606E1,1.0559917E1,5.5685722E1,0E0,0E0,0E0,0E0,0E0,0E0,0E0,0E0],"parents":[2147483647,0,0,1,1,2,2,3,3,4,4,5,5,6,6],"right_children":[2,4,6,8,10,12,14,-1,-1,-1,-1,-1,-1,-1,-1],"split_conditions":[-6.8936574E-1,-7.884773E-1,-5.999905E-1,-1.7764212E0,-3.491806E-1,2.3867962E0,3.5061043E-2,1.3468328E-3,2.7940294E-3,1.3860861E-3,5.343696E-4,7.9051894E-4,3.8926825E-3,-1.2308365E-4,-8.5206877E-4],"split_indices":[7,11,11,4,12,14,2,0,0,0,0,0,0,0,0],"split_type":[0,0,0,0,0,0,0,0,0,0,0,0,0,0,0],"sum_hessian":[5.9075996E4,1.0610666E4,4.8465332E4,4.0711108E3,6.539555E3,6.395111E3,4.207022E4,1.2844443E3,2.7866665E3,2.9577776E3,3.5817776E3,6.2862217E3,1.08888885E2,2.0116887E4,2.1953332E4],"tree_param":{"num_deleted":"0","num_feature":"17","num_nodes":"15","size_leaf_vector":"1"}},{"base_weights":[-1.2114166E-3,-1.17857195E-1,1.3636674E-1,-2.3691067E-1,-9.025007E-2,7.836388E-2,2.3564164E-1,-3.393338E-3,-2.175973E-3,-1.2713998E-3,-3.790076E-4,6.655923E-4,1.4584642E-3,1.9644247E-3,3.0147396E-3],"categories":[],"categories_nodes":[],"categories_segments":[],"categories_sizes":[],"default_left":[0,0,0,0,0,0,0,0,0,0,0,0,0,0,0],"id":3,"left_children":[1,3,5,7,9,11,13,-1,-1,-1,-1,-1,-1,-1,-1],"loss_changes":[9.4912573E2,1.04777374E2,1.5583374E2,1.0973938E1,5.0021545E1,1.3393417E1,2.500592E1,0E0,0E0,0E0,0E0,0E0,0E0,0E0,0E0],"parents":[2147483647,0,0,1,1,2,2,3,3,4,4,5,5,6,6],"right_children":[2,4,6,8,10,12,14,-1,-1,-1,-1,-1,-1,-1,-1],"split_conditions":[-1.8487199E-1,-7.457028E-1,5.651206E-1,-9.2722416E-1,-4.3054092E-1,1.0043398E0,1.4851992E0,-3.393338E-3,-2.175973E-3,-1.2713998E-3,-3.790076E-4,6.655923E-4,1.4584642E-3,1.9644247E-3,3.0147396E-3],"split_indices":[8,8,8,8,8,4,8,0,0,0,0,0,0,0,0],"split_type":[0,0,0,0,0,0,0,0,0,0,0,0,0,0,0],"sum_hessian":[5.9134406E4,3.200604E4,2.7128367E4,6.0108047E3,2.5995234E4,1.7135635E4,9.992732E3,9.3224896E2,5.078556E3,1.5233866E4,1.0761367E4,1.4605467E4,2.5301682E3,6.2853164E3,3.7074158E3],"tree_param":{"num_deleted":"0","num_feature":"17","num_nodes":"15","size_leaf_vector":"1"}},{"base_weights":[-1.5539776E-3,-3.065311E-1,4.1681677E-2,-4.707496E-1,-2.4200143E-1,6.3519806E-2,-1.6312031E-1,-5.414029E-3,-4.1097794E-3,-2.1951788E-3,-3.8995694E-3,-1.0719969E-3,9.5556636E-4,-1.2893279E-3,-3.168683E-3],"categories":[],"categories_nodes":[],"categories_segments":[],"categories_sizes":[],"default_left":[0,0,0,0,0,0,0,0,0,0,0,0,0,0,0],"id":4,"left_children":[1,3,5,7,9,11,13,-1,-1,-1,-1,-1,-1,-1,-1],"loss_changes":[7.764841E2,7.620386E1,2.3053363E2,6.605377E0,1.6473663E1,2.5488657E2,2.5445496E1,0E0,0E0,0E0,0E0,0E0,0E0,0E0,0E0],"parents":[2147483647,0,0,1,1,2,2,3,3,4,4,5,5,6,6],"right_children":[2,4,6,8,10,12,14,-1,-1,-1,-1,-1,-1,-1,-1],"split_conditions":[-9.233844E-1,-1.8665266E0,9.2351186E-1,-2.6431322E0,-2.776412E-1,-6.0263336E-1,1.7743543E0,-5.414029E-3,-4.1097794E-3,-2.1951788E-3,-3.8995694E-3,-1.0719969E-3,9.5556636E-4,-1.2893279E-3,-3.168683E-3],"split_indices":[7,7,0,7,2,0,11,0,0,0,0,0,0,0,0],"split_type":[0,0,0,0,0,0,0,0,0,0,0,0,0,0,0],"sum_hessian":[5.8857586E4,7.3071123E3,5.1550473E4,2.0480793E3,5.2590327E3,4.6590805E4,4.959666E3,9.1247015E2,1.1356093E3,4.581932E3,6.771006E2,7.3548687E3,3.9235938E4,4.0702905E3,8.893757E2],"tree_param":{"num_deleted":"0","num_feature":"17","num_nodes":"15","size_leaf_vector":"1"}},{"base_weights":[5.8070786E-4,1.4162931E-1,-3.220351E-2,2.2616278E-1,9.403602E-2,1.7167037E-2,-8.135814E-2,3.8141496E-3,2.0416381E-3,8.865689E-4,4.1315886E-3,1.071785E-3,3.8177072E-6,9.3271537E-4,-8.893583E-4],"categories":[],"categories_nodes":[],"categories_segments":[],"categories_sizes":[],"default_left":[0,0,0,0,0,0,0,0,0,0,0,0,0,0,0],"id":5,"left_children":[1,3,5,7,9,11,13,-1,-1,-1,-1,-1,-1,-1,-1],"loss_changes":[2.7326895E2,4.4418488E1,1.16376785E2,1.2700165E1,1.1584568E1,3.6008446E1,3.1830994E1,0E0,0E0,0E0,0E0,0E0,0E0,0E0,0E0],"parents":[2147483647,0,0,1,1,2,2,3,3,4,4,5,5,6,6],"right_children":[2,4,6,8,10,12,14,-1,-1,-1,-1,-1,-1,-1,-1],"split_conditions":[-6.1240286E-1,-8.634658E-1,-2.305798E-2,-2.6921582E0,2.3867962E0,-4.5904306E-1,-8.5006356E-1,3.8141496E-3,2.0416381E-3,8.865689E-4,4.1315886E-3,1.071785E-3,3.8177072E-6,9.3271537E-4,-8.893583E-4],"split_indices":[11,7,3,14,14,0,10,0,0,0,0,0,0,0,0],"split_type":[0,0,0,0,0,0,0,0,0,0,0,0,0,0,0],"sum_hessian":[5.9062215E4,1.1141535E4,4.7920684E4,3.998959E3,7.1425757E3,2.3899305E4,2.4021377E4,4.805378E2,3.5184211E3,7.0335415E3,1.0903447E2,3.7426636E3,2.015664E4,9.91168E2,2.3030209E4],"tree_param":{"num_deleted":"0","num_feature":"17","num_nodes":"15","size_leaf_vector":"1"}},{"base_weights":[-1.7138483E-3,-1.1380742E-1,1.269807E-1,-2.3175026E-1,-8.6183324E-2,7.0160426E-2,2.2731341E-1,-3.4311276E-3,-2.167585E-3,-1.1928445E-3,-3.379883E-4,3.5062857E-4,9.416087E-4,1.969007E-3,3.4370755E-3],"categories":[],"categories_nodes":[],"categories_segments":[],"categories_sizes":[],"default_left":[0,0,0,0,0,0,0,0,0,0,0,0,0,0,0],"id":6,"left_children":[1,3,5,7,9,11,13,-1,-1,-1,-1,-1,-1,-1,-1],"loss_changes":[8.5326733E2,1.02595245E2,1.5657861E2,9.069092E0,4.427333E1,1.4672066E1,3.4327515E1,0E0,0E0,0E0,0E0,0E0,0E0,0E0,0E0],"parents":[2147483647,0,0,1,1,2,2,3,3,4,4,5,5,6,6],"right_children":[2,4,6,8,10,12,14,-1,-1,-1,-1,-1,-1,-1,-1],"split_conditions":[-1.9647992E-1,-7.457028E-1,5.651206E-1,-9.4566673E-1,-4.2122394E-1,2.027272E-2,1.1243569E0,-3.4311276E-3,-2.167585E-3,-1.1928445E-3,-3.379883E-4,3.5062857E-4,9.416087E-4,1.969007E-3,3.4370755E-3],"split_indices":[8,8,8,8,8,8,11,0,0,0,0,0,0,0,0],"split_type":[0,0,0,0,0,0,0,0,0,0,0,0,0,0,0],"sum_hessian":[5.9139473E4,3.1612865E4,2.7526605E4,5.9852603E3,2.5627605E4,1.7585865E4,9.940741E3,6.892444E2,5.296016E3,1.5688658E4,9.938947E3,7.1637583E3,1.0422106E4,7.8988853E3,2.0418558E3],"tree_param":{"num_deleted":"0","num_feature":"17","num_nodes":"15","size_leaf_vector":"1"}},{"base_weights":[-2.1805463E-4,2.2028087E-1,-2.1006344E-1,4.0310058E-1,1.395886E-1,-1.3040853E-1,-4.044203E-1,5.994829E-3,3.7277862E-3,1.8818368E-3,5.9842574E-4,-6.574529E-4,-2.0882192E-3,-3.372014E-3,-4.791192E-3],"categories":[],"categories_nodes":[],"categories_segments":[],"categories_sizes":[],"default_left":[0,0,0,0,0,0,0,0,0,0,0,0,0,0,0],"id":7,"left_children":[1,3,5,7,9,11,13,-1,-1,-1,-1,-1,-1,-1,-1],"loss_changes":[2.7363818E3,4.245548E2,4.6834827E2,5.045105E1,7.726553E1,1.08699646E2,4.2578247E1,0E0,0E0,0E0,0E0,0E0,0E0,0E0,0E0],"parents":[2147483647,0,0,1,1,2,2,3,3,4,4,5,5,6,6],"right_children":[2,4,6,8,10,12,14,-1,-1,-1,-1,-1,-1,-1,-1],"split_conditions":[-2.6375574E-1,-6.825157E-1,6.691061E-1,-9.12321E-1,-4.3054092E-1,8.9804515E-2,1.3644525E0,5.994829E-3,3.7277862E-3,1.8818368E-3,5.9842574E-4,-6.574529E-4,-2.0882192E-3,-3.372014E-3,-4.791192E-3],"split_indices":[8,8,8,8,8,8,8,0,0,0,0,0,0,0,0],"split_type":[0,0,0,0,0,0,0,0,0,0,0,0,0,0,0],"sum_hessian":[5.9128793E4,2.883006E4,3.0298732E4,8.818388E3,2.0011672E4,2.15005E4,8.798232E3,1.1625063E3,7.6558813E3,1.2422436E4,7.5892373E3,1.1795415E4,9.705085E3,4.652538E3,4.145695E3],"tree_param":{"num_deleted":"0","num_feature":"17","num_nodes":"15","size_leaf_vector":"1"}},{"base_weights":[-1.4899168E-3,-1.1199811E-1,8.316708E-2,-1.9434522E-1,-5.9557933E-2,1.929585E-2,1.3082838E-1,-3.2764557E-3,-1.7652326E-3,-2.4484136E-4,-1.2440585E-3,5.416434E-4,-3.9357087E-4,2.0324327E-3,9.6246344E-4],"categories":[],"categories_nodes":[],"categories_segments":[],"categories_sizes":[],"default_left":[0,0,0,0,0,0,0,0,0,0,0,0,0,0,0],"id":8,"left_children":[1,3,5,7,9,11,13,-1,-1,-1,-1,-1,-1,-1,-1],"loss_changes":[5.5367926E2,1.1056418E2,1.0183151E2,2.2915375E1,3.5547375E1,2.9337204E1,4.762738E1,0E0,0E0,0E0,0E0,0E0,0E0,0E0,0E0],"parents":[2147483647,0,0,1,1,2,2,3,3,4,4,5,5,6,6],"right_children":[2,4,6,8,10,12,14,-1,-1,-1,-1,-1,-1,-1,-1],"split_conditions":[-3.369998E-1,-6.5880233E-1,6.40112E-2,-9.12321E-1,2.0213132E-1,9.493164E-2,-6.1240286E-1,-3.2764557E-3,-1.7652326E-3,-2.4484136E-4,-1.2440585E-3,5.416434E-4,-3.9357087E-4,2.0324327E-3,9.6246344E-4],"split_indices":[8,8,8,8,2,2,11,0,0,0,0,0,0,0,0],"split_type":[0,0,0,0,0,0,0,0,0,0,0,0,0,0,0],"sum_hessian":[5.9170473E4,2.5670857E4,3.3499613E4,9.974789E3,1.5696069E4,1.432739E4,1.9172225E4,1.1594655E3,8.815323E3,1.0201027E4,5.4950425E3,8.996505E3,5.3308853E3,6.1793486E3,1.2992876E4],"tree_param":{"num_deleted":"0","num_feature":"17","num_nodes":"15","size_leaf_vector":"1"}},{"base_weights":[-4.415472E-4,-1.1788925E-1,1.299056E-1,-1.5544383E-1,-3.4546394E-2,7.662936E-2,2.3344511E-1,-2.3135259E-3,-1.2593349E-3,-9.0164755E-4,-1.950107E-4,6.345589E-4,1.5630485E-3,2.07017E-3,3.1596427E-3],"categories":[],"categories_nodes":[],"categories_segments":[],"categories_sizes":[],"default_left":[0,0,0,0,0,0,0,0,0,0,0,0,0,0,0],"id":9,"left_children":[1,3,5,7,9,11,13,-1,-1,-1,-1,-1,-1,-1,-1],"loss_changes":[9.0531635E2,9.716025E1,1.5419336E2,4.7519775E1,7.980913E0,1.9167015E1,1.9894897E1,0E0,0E0,0E0,0E0,0E0,0E0,0E0,0E0],"parents":[2147483647,0,0,1,1,2,2,3,3,4,4,5,5,6,6],"right_children":[2,4,6,8,10,12,14,-1,-1,-1,-1,-1,-1,-1,-1],"split_conditions":[-2.0835523E-1,-4.259822E-1,6.045573E-1,-7.457028E-1,-4.7524077E-1,1.0254825E0,9.947471E-1,-2.3135259E-3,-1.2593349E-3,-9.0164755E-4,-1.950107E-4,6.345589E-4,1.5630485E-3,2.07017E-3,3.1596427E-3],"split_indices":[8,8,8,8,6,4,0,0,0,0,0,0,0,0,0],"split_type":[0,0,0,0,0,0,0,0,0,0,0,0,0,0,0],"sum_hessian":[5.9127105E4,3.1106828E4,2.8020277E4,2.1432807E4,9.674021E3,1.8512852E4,9.507426E3,5.9807026E3,1.54521045E4,2.0402727E3,7.6337485E3,1.5904717E4,2.608136E3,7.2236084E3,2.2838171E3],"tree_param":{"num_deleted":"0","num_feature":"17","num_nodes":"15","size_leaf_vector":"1"}},{"base_weights":[-2.1814902E-3,1.955273E-1,-2.3277734E-1,3.545815E-1,9.884716E-2,-1.5236765E-1,-4.0889868E-1,4.843124E-3,2.9694575E-3,1.6990901E-3,3.3395155E-4,-8.906483E-4,-2.0851323E-3,-3.6026686E-3,-5.086216E-3],"categories":[],"categories_nodes":[],"categories_segments":[],"categories_sizes":[],"default_left":[0,0,0,0,0,0,0,0,0,0,0,0,0,0,0],"id":10,"left_children":[1,3,5,7,9,11,13,-1,-1,-1,-1,-1,-1,-1,-1],"loss_changes":[2.6960212E3,4.8891296E2,3.857345E2,8.844519E1,9.191092E1,6.6265045E1,3.9680298E1,0E0,0E0,0E0,0E0,0E0,0E0,0E0,0E0],"parents":[2147483647,0,0,1,1,2,2,3,3,4,4,5,5,6,6],"right_children":[2,4,6,8,10,12,14,-1,-1,-1,-1,-1,-1,-1,-1],"split_conditions":[-1.9060941E-1,-6.164341E-1,6.913671E-1,-8.075174E-1,-4.259822E-1,8.9804515E-2,1.823475E0,4.843124E-3,2.9694575E-3,1.6990901E-3,3.3395155E-4,-8.906483E-4,-2.0851323E-3,-3.6026686E-3,-5.086216E-3],"split_indices":[8,8,8,8,8,8,8,0,0,0,0,0,0,0,0],"split_type":[0,0,0,0,0,0,0,0,0,0,0,0,0,0,0],"sum_hessian":[5.9124367E4,3.183017E4,2.7294197E4,1.2024413E4,1.9805756E4,1.8749129E4,8.545069E3,3.6821006E3,8.3423125E3,9.484781E3,1.0320975E4,8.8273E3,9.921829E3,5.766173E3,2.7788962E3],"tree_param":{"num_deleted":"0","num_feature":"17","num_nodes":"15","size_leaf_vector":"1"}},{"base_weights":[-2.3535812E-4,1.4155057E-1,-3.1301513E-2,1.9004162E-1,7.328087E-2,5.3524416E-2,-5.264841E-2,3.148656E-3,1.6937742E-3,-2.2991759E-5,9.815585E-4,4.687743E-4,3.1849137E-3,-8.275639E-5,-8.439806E-4],"categories":[],"categories_nodes":[],"categories_segments":[],"categories_sizes":[],"default_left":[0,0,0,0,0,0,0,0,0,0,0,0,0,0,0],"id":11,"left_children":[1,3,5,7,9,11,13,-1,-1,-1,-1,-1,-1,-1,-1],"loss_changes":[2.5996448E2,3.4778046E1,8.772359E1,1.5214539E1,8.409491E0,1.6700184E1,5.444097E1,0E0,0E0,0E0,0E0,0E0,0E0,0E0,0E0],"parents":[2147483647,0,0,1,1,2,2,3,3,4,4,5,5,6,6],"right_children":[2,4,6,8,10,12,14,-1,-1,-1,-1,-1,-1,-1,-1],"split_conditions":[-6.8936574E-1,-4.661427E-1,-4.223265E-1,-2.2303023E0,-1.277982E0,2.3867962E0,-2.0966647E-2,3.148656E-3,1.6937742E-3,-2.2991759E-5,9.815585E-4,4.687743E-4,3.1849137E-3,-8.275639E-5,-8.439806E-4],"split_indices":[7,12,0,14,1,14,2,0,0,0,0,0,0,0,0],"split_type":[0,0,0,0,0,0,0,0,0,0,0,0,0,0,0],"sum_hessian":[5.9034203E4,1.0601049E4,4.8433156E4,6.184626E3,4.416423E3,9.726939E3,3.8706215E4,8.6143933E2,5.3231865E3,1.084777E3,3.3316458E3,9.498322E3,2.286172E2,1.6159614E4,2.2546602E4],"tree_param":{"num_deleted":"0","num_feature":"17","num_nodes":"15","size_leaf_vector":"1"}},{"base_weights":[-8.065857E-4,1.7532153E-1,-1.7416669E-2,1.4924589E-1,5.262288E-1,-3.3313077E-2,1.3698065E-1,2.5004374E-3,1.1296745E-3,5.8407485E-3,2.9357462E-3,-4.1938978E-4,1.2063484E-3,1.1433556E-3,3.1687256E-3],"categories":[],"categories_nodes":[],"categories_segments":[],"categories_sizes":[],"default_left":[0,0,0,0,0,0,0,0,0,0,0,0,0,0,0],"id":12,"left_children":[1,3,5,7,9,11,13,-1,-1,-1,-1,-1,-1,-1,-1],"loss_changes":[1.7308076E2,4.5579956E1,1.3274535E2,1.6884079E1,2.94841E0,6.511726E1,1.994703E1,0E0,0E0,0E0,0E0,0E0,0E0,0E0,0E0],"parents":[2147483647,0,0,1,1,2,2,3,3,4,4,5,5,6,6],"right_children":[2,4,6,8,10,12,14,-1,-1,-1,-1,-1,-1,-1,-1],"split_conditions":[-1.1771897E0,1.5270259E0,1.0124875E0,-2.2399292E0,1.2274104E0,1.2590795E0,2.6634574E0,2.5004374E-3,1.1296745E-3,5.8407485E-3,2.9357462E-3,-4.1938978E-4,1.2063484E-3,1.1433556E-3,3.1687256E-3],"split_indices":[7,11,11,7,5,7,11,0,0,0,0,0,0,0,0],"split_type":[0,0,0,0,0,0,0,0,0,0,0,0,0,0,0],"sum_hessian":[5.9206492E4,5.0930806E3,5.4113414E4,4.750082E3,3.4299866E2,4.9071516E4,5.041897E3,1.242058E3,3.5080242E3,2.6520795E2,7.77907E1,4.6477457E4,2.5940593E3,4.490378E3,5.515191E2],"tree_param":{"num_deleted":"0","num_feature":"17","num_nodes":"15","size_leaf_vector":"1"}},{"base_weights":[4.675252E-4,-2.877452E-1,4.2650044E-2,-4.5465246E-1,-2.257925E-1,-1.1663492E-1,7.191554E-2,-4.989921E-3,-3.5936101E-3,-2.005309E-3,-3.8944415E-3,-2.2818795E-3,-7.413613E-4,1.0545844E-3,-1.1872284E-3],"categories":[],"categories_nodes":[],"categories_segments":[],"categories_sizes":[],"default_left":[0,0,0,0,0,0,0,0,0,0,0,0,0,0,0],"id":13,"left_children":[1,3,5,7,9,11,13,-1,-1,-1,-1,-1,-1,-1,-1],"loss_changes":[7.201978E2,7.700769E1,2.4098161E2,6.855713E0,2.1880249E1,3.7637337E1,2.7936807E2,0E0,0E0,0E0,0E0,0E0,0E0,0E0,0E0],"parents":[2147483647,0,0,1,1,2,2,3,3,4,4,5,5,6,6],"right_children":[2,4,6,8,10,12,14,-1,-1,-1,-1,-1,-1,-1,-1],"split_conditions":[-9.0291005E-1,-1.8665266E0,-5.689237E-1,-2.2399292E0,8.610959E-1,-1.2305783E0,7.6809156E-1,-4.989921E-3,-3.5936101E-3,-2.005309E-3,-3.8944415E-3,-2.2818795E-3,-7.413613E-4,1.0545844E-3,-1.1872284E-3],"split_indices":[7,7,10,7,0,10,10,0,0,0,0,0,0,0,0],"split_type":[0,0,0,0,0,0,0,0,0,0,0,0,0,0,0],"sum_hessian":[5.9248895E4,7.557735E3,5.169116E4,2.0329404E3,5.5247944E3,8.0155225E3,4.3675637E4,1.365765E3,6.671755E2,4.8009487E3,7.23846E2,2.1987507E3,5.816772E3,3.714707E4,6.528565E3],"tree_param":{"num_deleted":"0","num_feature":"17","num_nodes":"15","size_leaf_vector":"1"}},{"base_weights":[-1.2774393E-3,-1.0605054E-1,8.391569E-2,-1.9517969E-1,-5.6367867E-2,3.258701E-2,1.4561133E-1,-2.7797183E-3,-1.7472998E-3,-2.6992143E-6,-9.276911E-4,9.033329E-4,-4.6548394E-5,2.1975732E-3,1.0673658E-3],"categories":[],"categories_nodes":[],"categories_segments":[],"categories_sizes":[],"default_left":[0,0,0,0,0,0,0,0,0,0,0,0,0,0,0],"id":14,"left_children":[1,3,5,7,9,11,13,-1,-1,-1,-1,-1,-1,-1,-1],"loss_changes":[5.286755E2,1.17333496E2,1.0322534E2,1.5387268E1,3.4768578E1,3.8461212E1,4.2279327E1,0E0,0E0,0E0,0E0,0E0,0E0,0E0,0E0],"parents":[2147483647,0,0,1,1,2,2,3,3,4,4,5,5,6,6],"right_children":[2,4,6,8,10,12,14,-1,-1,-1,-1,-1,-1,-1,-1],"split_conditions":[-3.17985E-1,-6.682664E-1,2.554695E-1,-8.757803E-1,-3.6287807E-2,-2.1306053E-1,-6.1240286E-1,-2.7797183E-3,-1.7472998E-3,-2.6992143E-6,-9.276911E-4,9.033329E-4,-4.6548394E-5,2.1975732E-3,1.0673658E-3],"split_indices":[8,8,8,8,9,6,11,0,0,0,0,0,0,0,0],"split_type":[0,0,0,0,0,0,0,0,0,0,0,0,0,0,0],"sum_hessian":[5.9216582E4,2.6561256E4,3.2655326E4,9.494197E3,1.7067059E4,1.7838309E4,1.481702E4,1.8584117E3,7.6357856E3,6.7291997E3,1.0337858E4,7.001571E3,1.0836737E4,5.079629E3,9.737391E3],"tree_param":{"num_deleted":"0","num_feature":"17","num_nodes":"15","size_leaf_vector":"1"}},{"base_weights":[2.2910857E-3,-1.10384256E-1,1.3383731E-1,-1.5219814E-1,-2.684422E-2,8.419557E-2,2.4190791E-1,-2.28632E-3,-1.2198383E-3,-1.2631906E-3,-1.547711E-4,6.172505E-4,1.1424663E-3,2.1294928E-3,3.9794934E-3],"categories":[],"categories_nodes":[],"categories_segments":[],"categories_sizes":[],"default_left":[0,0,0,0,0,0,0,0,0,0,0,0,0,0,0],"id":15,"left_children":[1,3,5,7,9,11,13,-1,-1,-1,-1,-1,-1,-1,-1],"loss_changes":[8.766959E2,1.11072174E2,1.459899E2,4.8514893E1,1.187908E1,1.2426804E1,3.7743134E1,0E0,0E0,0E0,0E0,0E0,0E0,0E0,0E0],"parents":[2147483647,0,0,1,1,2,2,3,3,4,4,5,5,6,6],"right_children":[2,4,6,8,10,12,14,-1,-1,-1,-1,-1,-1,-1,-1],"split_conditions":[-1.9060941E-1,-4.3054092E-1,6.913671E-1,-7.457028E-1,-7.479371E-1,1.5615599E-1,1.5270259E0,-2.28632E-3,-1.2198383E-3,-1.2631906E-3,-1.547711E-4,6.172505E-4,1.1424663E-3,2.1294928E-3,3.9794934E-3],"split_indices":[8,8,8,8,14,12,11,0,0,0,0,0,0,0,0],"split_type":[0,0,0,0,0,0,0,0,0,0,0,0,0,0,0],"sum_hessian":[5.9136652E4,3.1849396E4,2.7287258E4,2.1214785E4,1.0634611E4,1.871072E4,8.576537E3,5.991644E3,1.5223142E4,1.0763978E3,9.558214E3,1.0733413E4,7.977307E3,7.2494043E3,1.3271333E3],"tree_param":{"num_deleted":"0","num_feature":"17","num_nodes":"15","size_leaf_vector":"1"}},{"base_weights":[3.106452E-3,1.9819993E-1,-2.2659224E-1,3.5438967E-1,1.03415586E-1,-1.385765E-1,-3.8198784E-1,4.826979E-3,2.9680398E-3,1.7319556E-3,3.927993E-4,-8.4089645E-4,-1.9478219E-3,-3.18844E-3,-4.6074004E-3],"categories":[],"categories_nodes":[],"categories_segments":[],"categories_sizes":[],"default_left":[0,0,0,0,0,0,0,0,0,0,0,0,0,0,0],"id":16,"left_children":[1,3,5,7,9,11,13,-1,-1,-1,-1,-1,-1,-1,-1],"loss_changes":[2.6515818E3,4.7306714E2,3.7086694E2,8.774866E1,8.8923035E1,5.280191E1,4.7311035E1,0E0,0E0,0E0,0E0,0E0,0E0,0E0,0E0],"parents":[2147483647,0,0,1,1,2,2,3,3,4,4,5,5,6,6],"right_children":[2,4,6,8,10,12,14,-1,-1,-1,-1,-1,-1,-1,-1],"split_conditions":[-1.9060941E-1,-6.164341E-1,5.651206E-1,-8.075174E-1,-4.259822E-1,8.9804515E-2,1.3086271E0,4.826979E-3,2.9680398E-3,1.7319556E-3,3.927993E-4,-8.4089645E-4,-1.9478219E-3,-3.18844E-3,-4.6074004E-3],"split_indices":[8,8,8,8,8,8,8,0,0,0,0,0,0,0,0],"split_type":[0,0,0,0,0,0,0,0,0,0,0,0,0,0,0],"sum_hessian":[5.916092E4,3.1992924E4,2.7167996E4,1.207348E4,1.9919443E4,1.7354396E4,9.813601E3,3.7232742E3,8.350206E3,9.528397E3,1.0391047E4,8.827311E3,8.527086E3,5.4676E3,4.3460005E3],"tree_param":{"num_deleted":"0","num_feature":"17","num_nodes":"15","size_leaf_vector":"1"}},{"base_weights":[7.574967E-4,1.3290009E-1,-2.8937453E-2,1.9679886E-1,8.0903836E-2,7.372157E-2,-4.553715E-2,3.1678935E-3,1.7435903E-3,7.238694E-5,1.0280851E-3,6.7478267E-4,4.004141E-3,-8.62768E-5,-7.496056E-4],"categories":[],"categories_nodes":[],"categories_segments":[],"categories_sizes":[],"default_left":[0,0,0,0,0,0,0,0,0,0,0,0,0,0,0],"id":17,"left_children":[1,3,5,7,9,11,13,-1,-1,-1,-1,-1,-1,-1,-1],"loss_changes":[2.3235303E2,3.574568E1,8.233316E1,1.2326645E1,9.581154E0,1.3102131E1,4.509826E1,0E0,0E0,0E0,0E0,0E0,0E0,0E0,0E0],"parents":[2147483647,0,0,1,1,2,2,3,3,4,4,5,5,6,6],"right_children":[2,4,6,8,10,12,14,-1,-1,-1,-1,-1,-1,-1,-1],"split_conditions":[-6.7633146E-1,-6.1240286E-1,-5.7622117E-1,-2.2303023E0,-1.45757E0,2.3867962E0,7.931962E-3,3.1678935E-3,1.7435903E-3,7.238694E-5,1.0280851E-3,6.7478267E-4,4.004141E-3,-8.62768E-5,-7.496056E-4],"split_indices":[7,11,11,14,1,14,2,0,0,0,0,0,0,0,0],"split_type":[0,0,0,0,0,0,0,0,0,0,0,0,0,0,0],"sum_hessian":[5.9177402E4,1.0861225E4,4.831618E4,4.858009E3,6.003216E3,6.7143794E3,4.1601797E4,7.4802246E2,4.1099863E3,1.3879299E3,4.615286E3,6.5973926E3,1.1698666E2,1.8471338E4,2.313046E4],"tree_param":{"num_deleted":"0","num_feature":"17","num_nodes":"15","size_leaf_vector":"1"}},{"base_weights":[-3.5038989E-3,-1.7463181E-2,1.7982405E-1,1.823444E-1,-3.0667739E-2,1.2630697E-1,3.1957442E-1,1.3173772E-3,2.665223E-3,-4.4781435E-4,6.2437594E-4,3.0561304E-3,1.0179019E-3,5.574154E-3,2.7528673E-3],"categories":[],"categories_nodes":[],"categories_segments":[],"categories_sizes":[],"default_left":[0,0,0,0,0,0,0,0,0,0,0,0,0,0,0],"id":18,"left_children":[1,3,5,7,9,11,13,-1,-1,-1,-1,-1,-1,-1,-1],"loss_changes":[1.5107817E2,1.447778E2,3.0588623E1,1.3912407E1,6.7703674E1,1.2772144E1,1.0493118E1,0E0,0E0,0E0,0E0,0E0,0E0,0E0,0E0],"parents":[2147483647,0,0,1,1,2,2,3,3,4,4,5,5,6,6],"right_children":[2,4,6,8,10,12,14,-1,-1,-1,-1,-1,-1,-1,-1],"split_conditions":[1.2132651E0,-1.4011074E0,2.1739416E0,7.9414946E-1,6.7818594E-1,-4.9322158E-2,-7.3915225E-1,1.3173772E-3,2.665223E-3,-4.4781435E-4,6.2437594E-4,3.0561304E-3,1.0179019E-3,5.574154E-3,2.7528673E-3],"split_indices":[12,6,12,5,0,6,2,0,0,0,0,0,0,0,0],"split_type":[0,0,0,0,0,0,0,0,0,0,0,0,0,0,0],"sum_hessian":[5.9087355E4,5.4915832E4,4.1715205E3,3.395551E3,5.152028E4,3.0284553E3,1.1430654E3,2.1360747E3,1.2594763E3,4.475003E4,6.7702534E3,3.5247507E2,2.6759802E3,1.6679648E2,9.762689E2],"tree_param":{"num_deleted":"0","num_feature":"17","num_nodes":"15","size_leaf_vector":"1"}},{"base_weights":[-1.4950994E-4,-2.9288203E-1,4.2706557E-2,-4.6613E-1,-2.2778015E-1,5.9980657E-2,-1.9453573E-1,-5.115178E-3,-4.0593348E-3,-2.0537253E-3,-3.8866808E-3,1.7086088E-4,1.5530748E-3,-1.0908194E-3,-2.9078552E-3],"categories":[],"categories_nodes":[],"categories_segments":[],"categories_sizes":[],"default_left":[0,0,0,0,0,0,0,0,0,0,0,0,0,0,0],"id":19,"left_children":[1,3,5,7,9,11,13,-1,-1,-1,-1,-1,-1,-1,-1],"loss_changes":[7.4212866E2,8.398462E1,2.1130962E2,3.6577148E0,1.8854187E1,1.9644537E2,2.8212723E1,0E0,0E0,0E0,0E0,0E0,0E0,0E0,0E0],"parents":[2147483647,0,0,1,1,2,2,3,3,4,4,5,5,6,6],"right_children":[2,4,6,8,10,12,14,-1,-1,-1,-1,-1,-1,-1,-1],"split_conditions":[-9.0291005E-1,-1.8665266E0,1.3329047E0,-2.4262056E0,-2.6575512E-1,5.552699E-1,1.8363686E0,-5.115178E-3,-4.0593348E-3,-2.0537253E-3,-3.8866808E-3,1.7086088E-4,1.5530748E-3,-1.0908194E-3,-2.9078552E-3],"split_indices":[7,7,7,7,2,1,7,0,0,0,0,0,0,0,0],"split_type":[0,0,0,0,0,0,0,0,0,0,0,0,0,0,0],"sum_hessian":[5.912568E4,7.5498516E3,5.157583E4,2.0495269E3,5.5003247E3,4.8082773E4,3.493055E3,1.1376473E3,9.118795E2,4.8433647E3,6.5696014E2,3.3172434E4,1.4910339E4,1.8614518E3,1.631603E3],"tree_param":{"num_deleted":"0","num_feature":"17","num_nodes":"15","size_leaf_vector":"1"}},{"base_weights":[1.7829433E-3,-1.04289435E-1,8.772295E-2,-1.879028E-1,-5.4105364E-2,6.299934E-2,1.971026E-1,-2.5905936E-3,-1.6011923E-3,-2.039017E-4,-1.1722248E-3,9.710435E-4,6.518676E-5,2.2457533E-3,4.9929356E-4],"categories":[],"categories_nodes":[],"categories_segments":[],"categories_sizes":[],"default_left":[0,0,0,0,0,0,0,0,0,0,0,0,0,0,0],"id":20,"left_children":[1,3,5,7,9,11,13,-1,-1,-1,-1,-1,-1,-1,-1],"loss_changes":[5.393011E2,1.1079584E2,8.807469E1,1.8985962E1,3.5088284E1,5.1279205E1,2.3996185E1,0E0,0E0,0E0,0E0,0E0,0E0,0E0,0E0],"parents":[2147483647,0,0,1,1,2,2,3,3,4,4,5,5,6,6],"right_children":[2,4,6,8,10,12,14,-1,-1,-1,-1,-1,-1,-1,-1],"split_conditions":[-3.17985E-1,-6.5880233E-1,1.0057521E0,-8.382657E-1,2.0213132E-1,2.7063541E-2,1.2499152E0,-2.5905936E-3,-1.6011923E-3,-2.039017E-4,-1.1722248E-3,9.710435E-4,6.518676E-5,2.2457533E-3,4.9929356E-4],"split_indices":[8,8,8,8,2,2,5,0,0,0,0,0,0,0,0],"split_type":[0,0,0,0,0,0,0,0,0,0,0,0,0,0,0],"sum_hessian":[5.915254E4,2.6469531E4,3.2683008E4,9.915438E3,1.6554092E4,2.6671371E4,6.0116367E3,2.7625781E3,7.152861E3,1.0804907E4,5.749185E3,1.6616463E4,1.0054907E4,5.058033E3,9.536036E2],"tree_param":{"num_deleted":"0","num_feature":"17","num_nodes":"15","size_leaf_vector":"1"}},{"base_weights":[1.5186634E-3,-1.5393231E-2,1.7217317E-1,1.594241E-1,-2.6012205E-2,1.14931524E-1,3.0168006E-1,2.1960398E-3,9.217553E-4,-3.6271714E-4,1.4698319E-3,9.550113E-4,3.459838E-3,4.653299E-3,2.475982E-3],"categories":[],"categories_nodes":[],"categories_segments":[],"categories_sizes":[],"default_left":[0,0,0,0,0,0,0,0,0,0,0,0,0,0,0],"id":21,"left_children":[1,3,5,7,9,11,13,-1,-1,-1,-1,-1,-1,-1,-1],"loss_changes":[1.702047E2,9.939375E1,3.883203E1,1.1990448E1,8.96213E1,1.6009827E1,1.3062714E1,0E0,0E0,0E0,0E0,0E0,0E0,0E0,0E0],"parents":[2147483647,0,0,1,1,2,2,3,3,4,4,5,5,6,6],"right_children":[2,4,6,8,10,12,14,-1,-1,-1,-1,-1,-1,-1,-1],"split_conditions":[9.947471E-1,-1.4011074E0,1.8410125E0,-1.854665E0,1.1787136E0,2.017046E0,-1.0347292E0,2.1960398E-3,9.217553E-4,-3.6271714E-4,1.4698319E-3,9.550113E-4,3.459838E-3,4.653299E-3,2.475982E-3],"split_indices":[0,6,0,6,12,12,14,0,0,0,0,0,0,0,0],"split_type":[0,0,0,0,0,0,0,0,0,0,0,0,0,0,0],"sum_hessian":[5.8910215E4,5.359739E4,5.3128228E3,3.0598389E3,5.0537555E4,3.69625E3,1.6165725E3,1.6009613E3,1.4588776E3,4.77174E4,2.8201536E3,3.4200361E3,2.7621393E2,3.874998E2,1.2290728E3],"tree_param":{"num_deleted":"0","num_feature":"17","num_nodes":"15","size_leaf_vector":"1"}},{"base_weights":[-6.431339E-4,-2.9086825E-1,4.164875E-2,-4.7347096E-1,-2.3232858E-1,6.1153244E-2,-1.7457858E-1,-5.209017E-3,-4.2322567E-3,-2.8037983E-3,-1.4699373E-3,-9.056882E-4,9.7255426E-4,-2.135324E-3,-6.373941E-4],"categories":[],"categories_nodes":[],"categories_segments":[],"categories_sizes":[],"default_left":[0,0,0,0,0,0,0,0,0,0,0,0,0,0,0],"id":22,"left_children":[1,3,5,7,9,11,13,-1,-1,-1,-1,-1,-1,-1,-1],"loss_changes":[7.2519495E2,7.907599E1,2.1733774E2,2.2799377E0,2.2758148E1,2.5908508E2,1.8056885E1,0E0,0E0,0E0,0E0,0E0,0E0,0E0,0E0],"parents":[2147483647,0,0,1,1,2,2,3,3,4,4,5,5,6,6],"right_children":[2,4,6,8,10,12,14,-1,-1,-1,-1,-1,-1,-1,-1],"split_conditions":[-9.0291005E-1,-1.9702902E0,9.947471E-1,-2.6431322E0,-1.1146406E0,-4.9941915E-1,1.3975571E0,-5.209017E-3,-4.2322567E-3,-2.8037983E-3,-1.4699373E-3,-9.056882E-4,9.7255426E-4,-2.135324E-3,-6.373941E-4],"split_indices":[7,7,0,7,7,0,4,0,0,0,0,0,0,0,0],"split_type":[0,0,0,0,0,0,0,0,0,0,0,0,0,0,0],"sum_hessian":[5.905278E4,7.510023E3,5.1542758E4,1.8103815E3,5.6996416E3,4.7285633E4,4.257126E3,8.969424E2,9.1343915E2,3.6315837E3,2.0680579E3,9.082119E3,3.820351E4,3.139952E3,1.117174E3],"tree_param":{"num_deleted":"0","num_feature":"17","num_nodes":"15","size_leaf_vector":"1"}},{"base_weights":[-2.8894495E-3,1.2932613E-1,-3.364498E-2,2.087112E-1,8.3625E-2,1.0262811E-2,-7.5009584E-2,2.4565E-3,7.6884654E-4,1.8186374E-3,6.710768E-4,9.348882E-4,-7.63361E-5,9.8232624E-5,-8.97894E-4],"categories":[],"categories_nodes":[],"categories_segments":[],"categories_sizes":[],"default_left":[0,0,0,0,0,0,0,0,0,0,0,0,0,0,0],"id":23,"left_children":[1,3,5,7,9,11,13,-1,-1,-1,-1,-1,-1,-1,-1],"loss_changes":[2.407671E2,4.015303E1,8.735735E1,1.9404404E1,1.1221619E1,3.4802814E1,3.1127869E1,0E0,0E0,0E0,0E0,0E0,0E0,0E0,0E0],"parents":[2147483647,0,0,1,1,2,2,3,3,4,4,5,5,6,6],"right_children":[2,4,6,8,10,12,14,-1,-1,-1,-1,-1,-1,-1,-1],"split_conditions":[-6.1240286E-1,-8.634658E-1,-1.7600395E-2,1.1839613E0,-1.0388225E0,-8.634658E-1,-4.223265E-1,2.4565E-3,7.6884654E-4,1.8186374E-3,6.710768E-4,9.348882E-4,-7.63361E-5,9.8232624E-5,-8.97894E-4],"split_indices":[11,7,2,5,6,7,0,0,0,0,0,0,0,0,0],"split_type":[0,0,0,0,0,0,0,0,0,0,0,0,0,0,0],"sum_hessian":[5.9222668E4,1.1167205E4,4.8055465E4,4.065507E3,7.1016973E3,2.3301219E4,2.4754246E4,3.166365E3,8.9914215E2,1.00625854E3,6.095439E3,4.1299487E3,1.917127E4,3.663068E3,2.1091178E4],"tree_param":{"num_deleted":"0","num_feature":"17","num_nodes":"15","size_leaf_vector":"1"}},{"base_weights":[-5.178817E-4,1.904945E-1,-1.5977934E-2,1.6899328E-1,4.7726384E-1,-3.2102797E-2,1.4026986E-1,3.992762E-3,1.5822351E-3,5.47074E-3,2.6356636E-3,-3.96643E-4,1.0281537E-3,1.0377237E-3,2.934589E-3],"categories":[],"categories_nodes":[],"categories_segments":[],"categories_sizes":[],"default_left":[0,0,0,0,0,0,0,0,0,0,0,0,0,0,0],"id":24,"left_children":[1,3,5,7,9,11,13,-1,-1,-1,-1,-1,-1,-1,-1],"loss_changes":[1.747031E2,2.6261093E1,1.3795538E2,9.37278E0,2.9878998E0,5.063398E1,2.8079338E1,0E0,0E0,0E0,0E0,0E0,0E0,0E0,0E0],"parents":[2147483647,0,0,1,1,2,2,3,3,4,4,5,5,6,6],"right_children":[2,4,6,8,10,12,14,-1,-1,-1,-1,-1,-1,-1,-1],"split_conditions":[-1.2803649E0,1.5984293E0,1.0124875E0,-4.1492405E0,-7.156288E-1,1.2590795E0,2.184029E0,3.992762E-3,1.5822351E-3,5.47074E-3,2.6356636E-3,-3.96643E-4,1.0281537E-3,1.0377237E-3,2.934589E-3],"split_indices":[7,11,11,0,2,7,11,0,0,0,0,0,0,0,0],"split_type":[0,0,0,0,0,0,0,0,0,0,0,0,0,0,0],"sum_hessian":[5.920893E4,4.4243096E3,5.4784617E4,4.12636E3,2.9794998E2,4.966911E4,5.115508E3,1.7215086E2,3.954209E3,2.1517679E2,8.277318E1,4.7043496E4,2.6256165E3,4.143281E3,9.7222705E2],"tree_param":{"num_deleted":"0","num_feature":"17","num_nodes":"15","size_leaf_vector":"1"}},{"base_weights":[-1.7229634E-3,-2.9064226E-1,4.048819E-2,-4.6895933E-1,-2.2476867E-1,6.219361E-2,-1.6519055E-1,-4.9707973E-3,-4.0659364E-3,-3.4690488E-3,-1.9618503E-3,-9.325933E-4,9.5922424E-4,-1.3526997E-3,-2.995865E-3],"categories":[],"categories_nodes":[],"categories_segments":[],"categories_sizes":[],"default_left":[0,0,0,0,0,0,0,0,0,0,0,0,0,0,0],"id":25,"left_children":[1,3,5,7,9,11,13,-1,-1,-1,-1,-1,-1,-1,-1],"loss_changes":[7.196567E2,8.7143616E1,2.2971213E2,1.6294556E0,1.8342194E1,2.4418129E2,1.910585E1,0E0,0E0,0E0,0E0,0E0,0E0,0E0,0E0],"parents":[2147483647,0,0,1,1,2,2,3,3,4,4,5,5,6,6],"right_children":[2,4,6,8,10,12,14,-1,-1,-1,-1,-1,-1,-1,-1],"split_conditions":[-9.0291005E-1,-1.8665266E0,9.2351186E-1,-2.2399292E0,-1.1912527E0,-5.4266894E-1,1.7743543E0,-4.9707973E-3,-4.0659364E-3,-3.4690488E-3,-1.9618503E-3,-9.325933E-4,9.5922424E-4,-1.3526997E-3,-2.995865E-3],"split_indices":[7,7,0,7,10,0,11,0,0,0,0,0,0,0,0],"split_type":[0,0,0,0,0,0,0,0,0,0,0,0,0,0,0],"sum_hessian":[5.8979105E4,7.5176836E3,5.146142E4,2.0156444E3,5.502039E3,4.655662E4,4.9048022E3,1.3541691E3,6.614754E2,1.0262529E3,4.4757866E3,8.293622E3,3.8263E4,4.0259727E3,8.788292E2],"tree_param":{"num_deleted":"0","num_feature":"17","num_nodes":"15","size_leaf_vector":"1"}},{"base_weights":[1.0564334E-3,1.3470891E-1,-2.9931437E-2,2.1472335E-1,9.6374825E-2,1.7279357E-2,-7.7505484E-2,3.387411E-3,1.8138045E-3,1.0594323E-3,-3.9032477E-4,8.772705E-4,-2.477624E-5,-8.326768E-4,1.0328994E-3],"categories":[],"categories_nodes":[],"categories_segments":[],"categories_sizes":[],"default_left":[0,0,0,0,0,0,0,0,0,0,0,0,0,0,0],"id":26,"left_children":[1,3,5,7,9,11,13,-1,-1,-1,-1,-1,-1,-1,-1],"loss_changes":[2.4509303E2,3.375363E1,1.079057E2,1.4041214E1,9.868164E0,3.3618816E1,2.4948837E1,0E0,0E0,0E0,0E0,0E0,0E0,0E0,0E0],"parents":[2147483647,0,0,1,1,2,2,3,3,4,4,5,5,6,6],"right_children":[2,4,6,8,10,12,14,-1,-1,-1,-1,-1,-1,-1,-1],"split_conditions":[-6.1240286E-1,-9.288142E-1,-1.9366695E-2,-2.2303023E0,1.8697927E0,-7.3241496E-1,2.1948254E0,3.387411E-3,1.8138045E-3,1.0594323E-3,-3.9032477E-4,8.772705E-4,-2.477624E-5,-8.326768E-4,1.0328994E-3],"split_indices":[11,14,3,14,5,7,14,0,0,0,0,0,0,0,0],"split_type":[0,0,0,0,0,0,0,0,0,0,0,0,0,0,0],"sum_hessian":[5.9143098E4,1.1134573E4,4.8008523E4,3.5906807E3,7.543892E3,2.4087305E4,2.392122E4,7.4476514E2,2.8459158E3,7.053909E3,4.89983E2,5.2830137E3,1.8804291E4,2.319034E4,7.3087994E2],"tree_param":{"num_deleted":"0","num_feature":"17","num_nodes":"15","size_leaf_vector":"1"}},{"base_weights":[-0E0,-1.1087159E-1,1.265601E-1,-1.5343703E-1,-2.9415864E-2,7.843061E-2,2.3318063E-1,-2.2579273E-3,-1.2390557E-3,-1.1925388E-3,-1.9305835E-4,6.94883E-4,1.7943989E-3,2.11964E-3,3.6553913E-3],"categories":[],"categories_nodes":[],"categories_segments":[],"categories_sizes":[],"default_left":[0,0,0,0,0,0,0,0,0,0,0,0,0,0,0],"id":27,"left_children":[1,3,5,7,9,11,13,-1,-1,-1,-1,-1,-1,-1,-1],"loss_changes":[8.297328E2,1.0908511E2,1.4128513E2,4.3727783E1,9.6888895E0,1.6884483E1,2.3125E1,0E0,0E0,0E0,0E0,0E0,0E0,0E0,0E0],"parents":[2147483647,0,0,1,1,2,2,3,3,4,4,5,5,6,6],"right_children":[2,4,6,8,10,12,14,-1,-1,-1,-1,-1,-1,-1,-1],"split_conditions":[-1.9647992E-1,-4.404189E-1,6.913671E-1,-7.457028E-1,-7.479371E-1,1.2272905E0,1.342729E0,-2.2579273E-3,-1.2390557E-3,-1.1925388E-3,-1.9305835E-4,6.94883E-4,1.7943989E-3,2.11964E-3,3.6553913E-3],"split_indices":[8,8,8,8,14,9,5,0,0,0,0,0,0,0,0],"split_type":[0,0,0,0,0,0,0,0,0,0,0,0,0,0,0],"sum_hessian":[5.9122215E4,3.1516266E4,2.7605951E4,2.0688566E4,1.0827698E4,1.9032541E4,8.57341E3,5.9770283E3,1.4711539E4,1.0797871E3,9.747911E3,1.7501482E4,1.5310586E3,7.406702E3,1.166708E3],"tree_param":{"num_deleted":"0","num_feature":"17","num_nodes":"15","size_leaf_vector":"1"}},{"base_weights":[5.6038983E-4,-2.5434428E-1,3.926983E-2,-3.8956866E-1,-1.7105243E-1,-1.1858896E-1,6.849258E-2,-5.059716E-3,-3.5303514E-3,-2.671259E-3,-1.2394113E-3,-2.2194346E-3,-7.3370576E-4,1.0275916E-3,-1.2433251E-3],"categories":[],"categories_nodes":[],"categories_segments":[],"categories_sizes":[],"default_left":[0,0,0,0,0,0,0,0,0,0,0,0,0,0,0],"id":28,"left_children":[1,3,5,7,9,11,13,-1,-1,-1,-1,-1,-1,-1,-1],"loss_changes":[5.834698E2,8.690558E1,2.3691098E2,1.0847809E1,2.133847E1,3.70996E1,2.864406E2,0E0,0E0,0E0,0E0,0E0,0E0,0E0,0E0],"parents":[2147483647,0,0,1,1,2,2,3,3,4,4,5,5,6,6],"right_children":[2,4,6,8,10,12,14,-1,-1,-1,-1,-1,-1,-1,-1],"split_conditions":[-8.92313E-1,-1.5169487E0,-5.689237E-1,-2.6921582E0,-9.4505334E-1,-1.1912527E0,7.6809156E-1,-5.059716E-3,-3.5303514E-3,-2.671259E-3,-1.2394113E-3,-2.2194346E-3,-7.3370576E-4,1.0275916E-3,-1.2433251E-3],"split_indices":[14,14,10,14,12,10,10,0,0,0,0,0,0,0,0],"split_type":[0,0,0,0,0,0,0,0,0,0,0,0,0,0,0],"sum_hessian":[5.914388E4,7.7903213E3,5.135356E4,2.9578538E3,4.832468E3,8.013859E3,4.33397E4,6.846868E2,2.2731667E3,1.575333E3,3.2571345E3,2.426352E3,5.587507E3,3.6806418E4,6.53328E3],"tree_param":{"num_deleted":"0","num_feature":"17","num_nodes":"15","size_leaf_vector":"1"}},{"base_weights":[-1.5775973E-3,-1.0917224E-1,8.024618E-2,-1.9541469E-1,-5.8885697E-2,3.0045763E-2,1.3515893E-1,-2.9995993E-3,-1.7734513E-3,-2.410331E-4,-1.1688074E-3,6.2710105E-4,-2.0651097E-4,1.7329995E-3,8.7195745E-4],"categories":[],"categories_nodes":[],"categories_segments":[],"categories_sizes":[],"default_left":[0,0,0,0,0,0,0,0,0,0,0,0,0,0,0],"id":29,"left_children":[1,3,5,7,9,11,13,-1,-1,-1,-1,-1,-1,-1,-1],"loss_changes":[5.2020734E2,1.10401886E2,9.231909E1,1.7001434E1,3.2403473E1,2.9105402E1,2.8961884E1,0E0,0E0,0E0,0E0,0E0,0E0,0E0,0E0],"parents":[2147483647,0,0,1,1,2,2,3,3,4,4,5,5,6,6],"right_children":[2,4,6,8,10,12,14,-1,-1,-1,-1,-1,-1,-1,-1],"split_conditions":[-3.369998E-1,-6.682664E-1,1.982499E-1,-8.9902574E-1,1.7202137E-1,5.95925E-2,6.115066E-2,-2.9995993E-3,-1.7734513E-3,-2.410331E-4,-1.1688074E-3,6.2710105E-4,-2.0651097E-4,1.7329995E-3,8.7195745E-4],"split_indices":[8,8,8,8,2,2,12,0,0,0,0,0,0,0,0],"split_type":[0,0,0,0,0,0,0,0,0,0,0,0,0,0,0],"sum_hessian":[5.9075688E4,2.5523701E4,3.355199E4,9.388285E3,1.6135417E4,1.7541633E4,1.60103545E4,1.3638856E3,8.024399E3,1.010143E4,6.0339873E3,1.0679376E4,6.862257E3,8.899458E3,7.110896E3],"tree_param":{"num_deleted":"0","num_feature":"17","num_nodes":"15","size_leaf_vector":"1"}},{"base_weights":[-7.182843E-4,-1.139629E-1,1.3074498E-1,-2.3097908E-1,-8.667219E-2,8.065278E-2,2.3502713E-1,-3.5693091E-3,-2.1397555E-3,-1.2211738E-3,-3.5757205E-4,6.7073596E-4,1.5833075E-3,2.1799807E-3,3.921326E-3],"categories":[],"categories_nodes":[],"categories_segments":[],"categories_sizes":[],"default_left":[0,0,0,0,0,0,0,0,0,0,0,0,0,0,0],"id":30,"left_children":[1,3,5,7,9,11,13,-1,-1,-1,-1,-1,-1,-1,-1],"loss_changes":[8.814643E2,1.0117526E2,1.427015E2,1.1910645E1,4.6402054E1,1.9257362E1,2.2721466E1,0E0,0E0,0E0,0E0,0E0,0E0,0E0,0E0],"parents":[2147483647,0,0,1,1,2,2,3,3,4,4,5,5,6,6],"right_children":[2,4,6,8,10,12,14,-1,-1,-1,-1,-1,-1,-1,-1],"split_conditions":[-1.9060941E-1,-7.457028E-1,6.691061E-1,-9.4566673E-1,-4.3054092E-1,1.0043398E0,1.6024036E0,-3.5693091E-3,-2.1397555E-3,-1.2211738E-3,-3.5757205E-4,6.7073596E-4,1.5833075E-3,2.1799807E-3,3.921326E-3],"split_indices":[8,8,8,8,8,4,5,0,0,0,0,0,0,0,0],"split_type":[0,0,0,0,0,0,0,0,0,0,0,0,0,0,0],"sum_hessian":[5.919944E4,3.180788E4,2.739156E4,6.001386E3,2.5806494E4,1.8515871E4,8.875689E3,6.9493787E2,5.306448E3,1.5198917E4,1.0607577E4,1.5779575E4,2.7362961E3,8.024226E3,8.5146326E2],"tree_param":{"num_deleted":"0","num_feature":"17","num_nodes":"15","size_leaf_vector":"1"}},{"base_weights":[-0E0,1.9403844E-1,-2.2891371E-1,3.5126224E-1,9.82495E-2,-1.6017896E-1,-4.08247E-1,4.618463E-3,2.8795556E-3,1.6880737E-3,3.6800824E-4,-9.012159E-4,-2.1011329E-3,-3.6968284E-3,-4.8444304E-3],"categories":[],"categories_nodes":[],"categories_segments":[],"categories_sizes":[],"default_left":[0,0,0,0,0,0,0,0,0,0,0,0,0,0,0],"id":31,"left_children":[1,3,5,7,9,11,13,-1,-1,-1,-1,-1,-1,-1,-1],"loss_changes":[2.630226E3,4.8207666E2,3.339491E2,8.349292E1,8.6163315E1,6.834677E1,2.034607E1,0E0,0E0,0E0,0E0,0E0,0E0,0E0,0E0],"parents":[2147483647,0,0,1,1,2,2,3,3,4,4,5,5,6,6],"right_children":[2,4,6,8,10,12,14,-1,-1,-1,-1,-1,-1,-1,-1],"split_conditions":[-1.9060941E-1,-6.164341E-1,7.8813887E-1,-7.8753626E-1,-4.3054092E-1,6.40112E-2,1.9390596E0,4.618463E-3,2.8795556E-3,1.6880737E-3,3.6800824E-4,-9.012159E-4,-2.1011329E-3,-3.6968284E-3,-4.8444304E-3],"split_indices":[8,8,8,8,8,8,8,0,0,0,0,0,0,0,0],"split_type":[0,0,0,0,0,0,0,0,0,0,0,0,0,0,0],"sum_hessian":[5.9205832E4,3.2046066E4,2.7159764E4,1.2123426E4,1.992264E4,1.9645203E4,7.514561E3,4.3964453E3,7.7269805E3,9.262292E3,1.066035E4,8.1894883E3,1.1455716E4,5.0175005E3,2.4970603E3],"tree_param":{"num_deleted":"0","num_feature":"17","num_nodes":"15","size_leaf_vector":"1"}},{"base_weights":[8.74218E-4,-1.0699805E-1,8.33097E-2,-1.7451434E-1,-4.715768E-2,2.6648762E-2,1.2899743E-1,-2.8700447E-3,-1.5673331E-3,-7.5541415E-5,-1.2108313E-3,6.6628394E-4,-3.3062598E-4,1.965957E-3,9.626678E-4],"categories":[],"categories_nodes":[],"categories_segments":[],"categories_sizes":[],"default_left":[0,0,0,0,0,0,0,0,0,0,0,0,0,0,0],"id":32,"left_children":[1,3,5,7,9,11,13,-1,-1,-1,-1,-1,-1,-1,-1],"loss_changes":[5.2677875E2,1.0339346E2,8.6768845E1,2.3424103E1,3.9730427E1,3.5872627E1,4.0725372E1,0E0,0E0,0E0,0E0,0E0,0E0,0E0,0E0],"parents":[2147483647,0,0,1,1,2,2,3,3,4,4,5,5,6,6],"right_children":[2,4,6,8,10,12,14,-1,-1,-1,-1,-1,-1,-1,-1],"split_conditions":[-3.369998E-1,-6.164341E-1,8.9804515E-2,-8.87279E-1,2.0213132E-1,5.95925E-2,-6.1240286E-1,-2.8700447E-3,-1.5673331E-3,-7.5541415E-5,-1.2108313E-3,6.6628394E-4,-3.3062598E-4,1.965957E-3,9.626678E-4],"split_indices":[8,8,8,8,2,2,11,0,0,0,0,0,0,0,0],"split_type":[0,0,0,0,0,0,0,0,0,0,0,0,0,0,0],"sum_hessian":[5.923118E4,2.565123E4,3.357995E4,1.2040248E4,1.3610982E4,1.5003158E4,1.857679E4,1.6253925E3,1.0414856E4,8.875313E3,4.7356685E3,8.996042E3,6.0071157E3,6.0422354E3,1.2534555E4],"tree_param":{"num_deleted":"0","num_feature":"17","num_nodes":"15","size_leaf_vector":"1"}},{"base_weights":[1.7335648E-3,-1.5963923E-2,1.4411166E-1,2.2957434E-1,-2.365725E-2,3.077672E-1,1.1669691E-1,1.9388046E-3,4.021537E-3,-3.2437008E-4,1.3843606E-3,2.1041164E-3,4.036421E-3,8.9682755E-4,2.6969677E-3],"categories":[],"categories_nodes":[],"categories_segments":[],"categories_sizes":[],"default_left":[0,0,0,0,0,0,0,0,0,0,0,0,0,0,0],"id":33,"left_children":[1,3,5,7,9,11,13,-1,-1,-1,-1,-1,-1,-1,-1],"loss_changes":[1.4883818E2,9.897036E1,2.8698318E1,8.81543E0,7.235617E1,7.630623E0,2.2695625E1,0E0,0E0,0E0,0E0,0E0,0E0,0E0,0E0],"parents":[2147483647,0,0,1,1,2,2,3,3,4,4,5,5,6,6],"right_children":[2,4,6,8,10,12,14,-1,-1,-1,-1,-1,-1,-1,-1],"split_conditions":[8.815227E-1,-1.854665E0,-1.0593797E0,9.9435854E-1,1.2645969E0,6.7797554E-1,1.5268813E0,1.9388046E-3,4.021537E-3,-3.2437008E-4,1.3843606E-3,2.1041164E-3,4.036421E-3,8.9682755E-4,2.6969677E-3],"split_indices":[0,13,14,10,10,5,14,0,0,0,0,0,0,0,0],"split_type":[0,0,0,0,0,0,0,0,0,0,0,0,0,0,0],"sum_hessian":[5.9008566E4,5.2482453E4,6.5261123E3,1.5861184E3,5.0896336E4,9.2379626E2,5.602316E3,1.3278884E3,2.5822998E2,4.829084E4,2.6054963E3,4.7145926E2,4.52337E2,4.7738896E3,8.2842645E2],"tree_param":{"num_deleted":"0","num_feature":"17","num_nodes":"15","size_leaf_vector":"1"}},{"base_weights":[-1.0889398E-3,-2.7631813E-1,4.0563434E-2,-4.7118628E-1,-2.1695821E-1,6.0072806E-2,-1.6968577E-1,-5.0061387E-3,-3.7981595E-3,-2.7753224E-3,-1.4586964E-3,-1.0479494E-3,9.0294064E-4,-1.3148551E-3,-3.5172077E-3],"categories":[],"categories_nodes":[],"categories_segments":[],"categories_sizes":[],"default_left":[0,0,0,0,0,0,0,0,0,0,0,0,0,0,0],"id":34,"left_children":[1,3,5,7,9,11,13,-1,-1,-1,-1,-1,-1,-1,-1],"loss_changes":[6.775177E2,8.866528E1,2.1040866E2,3.02417E0,2.5073395E1,2.3402013E2,2.9561386E1,0E0,0E0,0E0,0E0,0E0,0E0,0E0,0E0],"parents":[2147483647,0,0,1,1,2,2,3,3,4,4,5,5,6,6],"right_children":[2,4,6,8,10,12,14,-1,-1,-1,-1,-1,-1,-1,-1],"split_conditions":[-8.821658E-1,-1.9702902E0,1.1160616E0,-2.2399292E0,-1.1771897E0,-5.999905E-1,2.3739285E0,-5.0061387E-3,-3.7981595E-3,-2.7753224E-3,-1.4586964E-3,-1.0479494E-3,9.0294064E-4,-1.3148551E-3,-3.5172077E-3],"split_indices":[7,7,12,7,7,11,12,0,0,0,0,0,0,0,0],"split_type":[0,0,0,0,0,0,0,0,0,0,0,0,0,0,0],"sum_hessian":[5.9069402E4,7.7638076E3,5.1305594E4,1.8007448E3,5.963063E3,4.695673E4,4.3488647E3,1.3368478E3,4.6389697E2,3.204201E3,2.758862E3,7.2670347E3,3.9689695E4,3.6062039E3,7.4266113E2],"tree_param":{"num_deleted":"0","num_feature":"17","num_nodes":"15","size_leaf_vector":"1"}},{"base_weights":[1.1883953E-3,-1.0172225E-1,8.212659E-2,-1.862996E-1,-5.340247E-2,2.5287636E-2,1.2648395E-1,-2.5773903E-3,-1.562118E-3,-1.7885427E-4,-1.1959658E-3,6.052492E-4,-2.738188E-4,1.744777E-3,7.0400134E-4],"categories":[],"categories_nodes":[],"categories_segments":[],"categories_sizes":[],"default_left":[0,0,0,0,0,0,0,0,0,0,0,0,0,0,0],"id":35,"left_children":[1,3,5,7,9,11,13,-1,-1,-1,-1,-1,-1,-1,-1],"loss_changes":[4.9208325E2,1.059837E2,8.32242E1,1.9686981E1,3.8794E1,2.6978981E1,4.9669037E1,0E0,0E0,0E0,0E0,0E0,0E0,0E0,0E0],"parents":[2147483647,0,0,1,1,2,2,3,3,4,4,5,5,6,6],"right_children":[2,4,6,8,10,12,14,-1,-1,-1,-1,-1,-1,-1,-1],"split_conditions":[-3.2744935E-1,-6.682664E-1,8.9804515E-2,-8.382657E-1,2.0213132E-1,5.95925E-2,4.9258865E-2,-2.5773903E-3,-1.562118E-3,-1.7885427E-4,-1.1959658E-3,6.052492E-4,-2.738188E-4,1.744777E-3,7.0400134E-4],"split_indices":[8,8,8,8,2,2,11,0,0,0,0,0,0,0,0],"split_type":[0,0,0,0,0,0,0,0,0,0,0,0,0,0,0],"sum_hessian":[5.9070207E4,2.599925E4,3.3070957E4,9.440294E3,1.6558955E4,1.450931E4,1.8561646E4,2.77659E3,6.663704E3,1.0790613E4,5.7683413E3,8.704208E3,5.805102E3,9.986937E3,8.57471E3],"tree_param":{"num_deleted":"0","num_feature":"17","num_nodes":"15","size_leaf_vector":"1"}},{"base_weights":[7.412708E-6,-1.0908819E-1,1.2631282E-1,-2.213729E-1,-8.291931E-2,8.0315344E-2,2.2979777E-1,-3.7172697E-3,-2.0146049E-3,-1.1402523E-3,-3.4602184E-4,4.7108345E-4,1.0411824E-3,2.16872E-3,4.9578073E-3],"categories":[],"categories_nodes":[],"categories_segments":[],"categories_sizes":[],"default_left":[0,0,0,0,0,0,0,0,0,0,0,0,0,0,0],"id":36,"left_children":[1,3,5,7,9,11,13,-1,-1,-1,-1,-1,-1,-1,-1],"loss_changes":[8.129541E2,9.2605194E1,1.2976587E2,1.6932098E1,3.843286E1,1.4799377E1,2.7647522E1,0E0,0E0,0E0,0E0,0E0,0E0,0E0,0E0],"parents":[2147483647,0,0,1,1,2,2,3,3,4,4,5,5,6,6],"right_children":[2,4,6,8,10,12,14,-1,-1,-1,-1,-1,-1,-1,-1],"split_conditions":[-1.9060941E-1,-7.457028E-1,7.140238E-1,-9.4566673E-1,-4.2122394E-1,-2.2789492E-1,3.1452205E0,-3.7172697E-3,-2.0146049E-3,-1.1402523E-3,-3.4602184E-4,4.7108345E-4,1.0411824E-3,2.16872E-3,4.9578073E-3],"split_indices":[8,8,8,8,8,13,11,0,0,0,0,0,0,0,0],"split_type":[0,0,0,0,0,0,0,0,0,0,0,0,0,0,0],"sum_hessian":[5.8986684E4,3.1645674E4,2.7341012E4,5.9670234E3,2.567865E4,1.8940701E4,8.400311E3,6.816299E2,5.2853936E3,1.5604916E4,1.0073735E4,7.931923E3,1.1008778E4,8.0232466E3,3.7706345E2],"tree_param":{"num_deleted":"0","num_feature":"17","num_nodes":"15","size_leaf_vector":"1"}},{"base_weights":[-2.196495E-3,1.8216231E-1,-2.2886628E-1,3.6947218E-1,1.06421895E-1,-1.3967352E-1,-3.7694442E-1,5.7683685E-3,3.3977656E-3,1.7464078E-3,3.1011915E-4,-8.123162E-4,-1.8937968E-3,-3.2225912E-3,-4.626874E-3],"categories":[],"categories_nodes":[],"categories_segments":[],"categories_sizes":[],"default_left":[0,0,0,0,0,0,0,0,0,0,0,0,0,0,0],"id":37,"left_children":[1,3,5,7,9,11,13,-1,-1,-1,-1,-1,-1,-1,-1],"loss_changes":[2.4734146E3,4.6235742E2,3.4987756E2,5.5935303E1,1.1938028E2,4.782086E1,4.5232788E1,0E0,0E0,0E0,0E0,0E0,0E0,0E0,0E0],"parents":[2147483647,0,0,1,1,2,2,3,3,4,4,5,5,6,6],"right_children":[2,4,6,8,10,12,14,-1,-1,-1,-1,-1,-1,-1,-1],"split_conditions":[-1.7871185E-1,-6.729213E-1,5.464691E-1,-9.12321E-1,-4.3054092E-1,6.40112E-2,1.4220513E0,5.7683685E-3,3.3977656E-3,1.7464078E-3,3.1011915E-4,-8.123162E-4,-1.8937968E-3,-3.2225912E-3,-4.626874E-3],"split_indices":[8,8,8,8,8,8,8,0,0,0,0,0,0,0,0],"split_type":[0,0,0,0,0,0,0,0,0,0,0,0,0,0,0],"sum_hessian":[5.9177676E4,3.2632799E4,2.6544875E4,9.386621E3,2.3246178E4,1.657664E4,9.968235E3,1.160065E3,8.226556E3,1.2194607E4,1.1051571E4,7.634127E3,8.942513E3,6.1080737E3,3.8601616E3],"tree_param":{"num_deleted":"0","num_feature":"17","num_nodes":"15","size_leaf_vector":"1"}},{"base_weights":[1.3047432E-3,-1.0262202E-1,8.048547E-2,-1.8349941E-1,-5.1640056E-2,2.368888E-2,1.2501766E-1,-2.475348E-3,-1.4923827E-3,7.392439E-5,-8.4064784E-4,5.3837796E-4,-2.7693447E-4,1.8230773E-3,9.282764E-4],"categories":[],"categories_nodes":[],"categories_segments":[],"categories_sizes":[],"default_left":[0,0,0,0,0,0,0,0,0,0,0,0,0,0,0],"id":38,"left_children":[1,3,5,7,9,11,13,-1,-1,-1,-1,-1,-1,-1,-1],"loss_changes":[4.864304E2,1.05097534E2,8.471179E1,2.1076721E1,3.0112953E1,2.2904526E1,3.4307587E1,0E0,0E0,0E0,0E0,0E0,0E0,0E0,0E0],"parents":[2147483647,0,0,1,1,2,2,3,3,4,4,5,5,6,6],"right_children":[2,4,6,8,10,12,14,-1,-1,-1,-1,-1,-1,-1,-1],"split_conditions":[-3.369998E-1,-6.5880233E-1,8.110905E-2,-8.145288E-1,-1.8472463E-1,2.8566095E-1,-7.1116626E-1,-2.475348E-3,-1.4923827E-3,7.392439E-5,-8.4064784E-4,5.3837796E-4,-2.7693447E-4,1.8230773E-3,9.282764E-4],"split_indices":[8,8,8,8,4,14,9,0,0,0,0,0,0,0,0],"split_type":[0,0,0,0,0,0,0,0,0,0,0,0,0,0,0],"sum_hessian":[5.910442E4,2.5552281E4,3.3552145E4,9.866897E3,1.5685383E4,1.4758804E4,1.879334E4,3.418074E3,6.4488237E3,5.5514424E3,1.013394E4,9.3133545E3,5.4454487E3,6.7412466E3,1.2052093E4],"tree_param":{"num_deleted":"0","num_feature":"17","num_nodes":"15","size_leaf_vector":"1"}},{"base_weights":[7.675886E-6,-1.6862866E-2,1.6167958E-1,1.3099808E-1,-3.145433E-2,1.19903445E-1,3.175056E-1,9.277924E-4,2.5084983E-3,1.7523741E-3,-3.7188202E-4,3.091326E-3,9.182617E-4,4.460163E-3,2.6093551E-3],"categories":[],"categories_nodes":[],"categories_segments":[],"categories_sizes":[],"default_left":[0,0,0,0,0,0,0,0,0,0,0,0,0,0,0],"id":39,"left_children":[1,3,5,7,9,11,13,-1,-1,-1,-1,-1,-1,-1,-1],"loss_changes":[1.6132394E2,1.15358086E2,3.5758408E1,2.152964E1,5.762197E1,2.294521E1,7.2430344E0,0E0,0E0,0E0,0E0,0E0,0E0,0E0,0E0],"parents":[2147483647,0,0,1,1,2,2,3,3,4,4,5,5,6,6],"right_children":[2,4,6,8,10,12,14,-1,-1,-1,-1,-1,-1,-1,-1],"split_conditions":[1.0124875E0,-1.1523556E0,2.184029E0,-5.798264E-1,-1.3554543E0,-7.7775055E-1,-2.4066964E-1,9.277924E-4,2.5084983E-3,1.7523741E-3,-3.7188202E-4,3.091326E-3,9.182617E-4,4.460163E-3,2.6093551E-3],"split_indices":[11,12,11,1,6,14,14,0,0,0,0,0,0,0,0],"split_type":[0,0,0,0,0,0,0,0,0,0,0,0,0,0,0],"sum_hessian":[5.908425E4,5.3499812E4,5.584438E3,4.79561E3,4.87042E4,4.41584E3,1.1685984E3,3.6491636E3,1.1464464E3,1.3059453E3,4.7398254E4,5.59484E2,3.8563557E3,3.41259E2,8.273394E2],"tree_param":{"num_deleted":"0","num_feature":"17","num_nodes":"15","size_leaf_vector":"1"}},{"base_weights":[2.9776388E-4,-2.847887E-1,4.0280607E-2,-4.2866045E-1,-2.0950298E-1,5.9949197E-2,-1.6232383E-1,-4.789212E-3,-3.6518264E-3,-1.8586327E-3,-3.6023261E-3,-8.1790163E-4,9.2821266E-4,-9.430779E-4,-2.4988411E-3],"categories":[],"categories_nodes":[],"categories_segments":[],"categories_sizes":[],"default_left":[0,0,0,0,0,0,0,0,0,0,0,0,0,0,0],"id":40,"left_children":[1,3,5,7,9,11,13,-1,-1,-1,-1,-1,-1,-1,-1],"loss_changes":[6.744968E2,7.774237E1,2.0683429E2,6.2280273E0,1.6194199E1,2.2057893E2,2.6879333E1,0E0,0E0,0E0,0E0,0E0,0E0,0E0,0E0],"parents":[2147483647,0,0,1,1,2,2,3,3,4,4,5,5,6,6],"right_children":[2,4,6,8,10,12,14,-1,-1,-1,-1,-1,-1,-1,-1],"split_conditions":[-9.233844E-1,-1.689726E0,1.0863334E0,-2.2399292E0,-2.8388745E-1,-5.1511645E-1,1.6135193E0,-4.789212E-3,-3.6518264E-3,-1.8586327E-3,-3.6023261E-3,-8.1790163E-4,9.2821266E-4,-9.430779E-4,-2.4988411E-3],"split_indices":[7,7,12,7,2,12,12,0,0,0,0,0,0,0,0],"split_type":[0,0,0,0,0,0,0,0,0,0,0,0,0,0,0],"sum_hessian":[5.918524E4,7.272819E3,5.191242E4,2.4857583E3,4.7870605E3,4.732648E4,4.58594E3,1.3602537E3,1.1255048E3,4.153453E3,6.336073E2,8.90248E3,3.8424E4,2.5932969E3,1.9926432E3],"tree_param":{"num_deleted":"0","num_feature":"17","num_nodes":"15","size_leaf_vector":"1"}},{"base_weights":[1.611258E-4,1.2278905E-1,-3.3032358E-2,2.0860092E-1,8.427207E-2,1.2733954E-2,-7.8629576E-2,2.1533833E-3,-8.2084676E-4,1.6461605E-3,6.951127E-4,1.0285173E-3,-2.8624001E-5,2.3766284E-4,-8.9311687E-4],"categories":[],"categories_nodes":[],"categories_segments":[],"categories_sizes":[],"default_left":[0,0,0,0,0,0,0,0,0,0,0,0,0,0,0],"id":41,"left_children":[1,3,5,7,9,11,13,-1,-1,-1,-1,-1,-1,-1,-1],"loss_changes":[2.4024713E2,4.1181625E1,9.6952286E1,7.8287964E0,1.0021095E1,3.265743E1,2.5526047E1,0E0,0E0,0E0,0E0,0E0,0E0,0E0,0E0],"parents":[2147483647,0,0,1,1,2,2,3,3,4,4,5,5,6,6],"right_children":[2,4,6,8,10,12,14,-1,-1,-1,-1,-1,-1,-1,-1],"split_conditions":[-5.4360837E-1,-9.4431067E-1,-2.305798E-2,2.3581963E0,-1.0136468E0,-4.661427E-1,-5.569166E-1,2.1533833E-3,-8.2084676E-4,1.6461605E-3,6.951127E-4,1.0285173E-3,-2.8624001E-5,2.3766284E-4,-8.9311687E-4],"split_indices":[11,7,3,10,6,12,10,0,0,0,0,0,0,0,0],"split_type":[0,0,0,0,0,0,0,0,0,0,0,0,0,0,0],"sum_hessian":[5.8990246E4,1.25698E4,4.642045E4,3.8792305E3,8.690569E3,2.3158121E4,2.3262328E4,3.7959844E3,8.324604E1,1.3304326E3,7.3601367E3,3.4219263E3,1.9736193E4,2.1880947E3,2.1074232E4],"tree_param":{"num_deleted":"0","num_feature":"17","num_nodes":"15","size_leaf_vector":"1"}},{"base_weights":[1.6638428E-3,-1.110362E-1,1.2817486E-1,-1.7464091E-1,-6.0864776E-2,7.551057E-2,2.2150636E-1,-2.2489172E-3,-1.3590083E-3,-9.600433E-4,-3.3704084E-4,6.803416E-4,1.6427737E-3,2.050252E-3,3.965495E-3],"categories":[],"categories_nodes":[],"categories_segments":[],"categories_sizes":[],"default_left":[0,0,0,0,0,0,0,0,0,0,0,0,0,0,0],"id":42,"left_children":[1,3,5,7,9,11,13,-1,-1,-1,-1,-1,-1,-1,-1],"loss_changes":[8.4339215E2,9.952814E1,1.3661926E2,2.631549E1,1.655893E1,1.1546547E1,2.797052E1,0E0,0E0,0E0,0E0,0E0,0E0,0E0,0E0],"parents":[2147483647,0,0,1,1,2,2,3,3,4,4,5,5,6,6],"right_children":[2,4,6,8,10,12,14,-1,-1,-1,-1,-1,-1,-1,-1],"split_conditions":[-2.0245793E-1,-5.7911927E-1,5.651206E-1,-7.457028E-1,-4.259822E-1,1.4207976E0,2.184029E0,-2.2489172E-3,-1.3590083E-3,-9.600433E-4,-3.3704084E-4,6.803416E-4,1.6427737E-3,2.050252E-3,3.965495E-3],"split_indices":[8,8,8,8,8,7,11,0,0,0,0,0,0,0,0],"split_type":[0,0,0,0,0,0,0,0,0,0,0,0,0,0,0],"sum_hessian":[5.9141863E4,3.1274367E4,2.7867496E4,1.3776677E4,1.749769E4,1.7827635E4,1.0039861E4,5.9756553E3,7.8010215E3,7.606794E3,9.890896E3,1.6461277E4,1.3663577E3,9.191049E3,8.488123E2],"tree_param":{"num_deleted":"0","num_feature":"17","num_nodes":"15","size_leaf_vector":"1"}},{"base_weights":[2.740891E-3,2.0453979E-1,-1.9978341E-1,3.785936E-1,1.2902457E-1,-1.1597486E-1,-3.6871102E-1,5.85591E-3,3.467333E-3,1.7996072E-3,5.010727E-4,-4.3830715E-4,-1.684146E-3,-3.1457697E-3,-4.59763E-3],"categories":[],"categories_nodes":[],"categories_segments":[],"categories_sizes":[],"default_left":[0,0,0,0,0,0,0,0,0,0,0,0,0,0,0],"id":43,"left_children":[1,3,5,7,9,11,13,-1,-1,-1,-1,-1,-1,-1,-1],"loss_changes":[2.4246416E3,3.8986682E2,4.1847546E2,5.731421E1,8.3087036E1,7.466205E1,4.686499E1,0E0,0E0,0E0,0E0,0E0,0E0,0E0,0E0],"parents":[2147483647,0,0,1,1,2,2,3,3,4,4,5,5,6,6],"right_children":[2,4,6,8,10,12,14,-1,-1,-1,-1,-1,-1,-1,-1],"split_conditions":[-2.5331515E-1,-6.825157E-1,5.651206E-1,-9.12321E-1,-4.3054092E-1,-2.0708267E-2,1.4851992E0,5.85591E-3,3.467333E-3,1.7996072E-3,5.010727E-4,-4.3830715E-4,-1.684146E-3,-3.1457697E-3,-4.59763E-3],"split_indices":[8,8,8,8,8,8,8,0,0,0,0,0,0,0,0],"split_type":[0,0,0,0,0,0,0,0,0,0,0,0,0,0,0],"sum_hessian":[5.9316777E4,2.9714049E4,2.960273E4,8.980871E3,2.0733178E4,1.9795912E4,9.806816E3,1.1821456E3,7.798726E3,1.2588814E4,8.1443623E3,8.344369E3,1.1451544E4,6.1711035E3,3.6357131E3],"tree_param":{"num_deleted":"0","num_feature":"17","num_nodes":"15","size_leaf_vector":"1"}},{"base_weights":[1.08188E-3,1.20239004E-1,-2.7322037E-2,2.4715522E-1,9.809014E-2,1.6223134E-2,-6.965397E-2,3.8572352E-3,1.889466E-3,1.6173418E-3,7.2250527E-4,8.561877E-4,1.0348469E-5,-8.4732275E-4,5.9645477E-5],"categories":[],"categories_nodes":[],"categories_segments":[],"categories_sizes":[],"default_left":[0,0,0,0,0,0,0,0,0,0,0,0,0,0,0],"id":44,"left_children":[1,3,5,7,9,11,13,-1,-1,-1,-1,-1,-1,-1,-1],"loss_changes":[1.9981058E2,3.1482147E1,8.7883316E1,1.2601311E1,1.56458435E1,2.4658476E1,2.7641068E1,0E0,0E0,0E0,0E0,0E0,0E0,0E0,0E0],"parents":[2147483647,0,0,1,1,2,2,3,3,4,4,5,5,6,6],"right_children":[2,4,6,8,10,12,14,-1,-1,-1,-1,-1,-1,-1,-1],"split_conditions":[-5.999905E-1,-7.3938715E-1,-9.883856E-3,-2.2303023E0,-1.0136468E0,-4.7593063E-1,1.1046273E0,3.8572352E-3,1.889466E-3,1.6173418E-3,7.2250527E-4,8.561877E-4,1.0348469E-5,-8.4732275E-4,5.9645477E-5],"split_indices":[11,3,2,14,6,12,14,0,0,0,0,0,0,0,0],"split_type":[0,0,0,0,0,0,0,0,0,0,0,0,0,0,0],"sum_hessian":[5.899914E4,1.1360366E4,4.7638773E4,1.6737264E3,9.68664E3,2.3472754E4,2.4166021E4,4.8170132E2,1.192025E3,2.7783796E3,6.9082603E3,4.198892E3,1.9273861E4,2.0158955E4,4.0070671E3],"tree_param":{"num_deleted":"0","num_feature":"17","num_nodes":"15","size_leaf_vector":"1"}},{"base_weights":[-8.8186335E-4,-1.0862229E-1,1.2355928E-1,-2.2302781E-1,-8.183574E-2,8.25474E-2,2.3184502E-1,-3.5032302E-3,-2.0590029E-3,-1.1764801E-3,-3.045537E-4,2.42085E-4,9.805899E-4,1.9259977E-3,3.2898772E-3],"categories":[],"categories_nodes":[],"categories_segments":[],"categories_sizes":[],"default_left":[0,0,0,0,0,0,0,0,0,0,0,0,0,0,0],"id":45,"left_children":[1,3,5,7,9,11,13,-1,-1,-1,-1,-1,-1,-1,-1],"loss_changes":[7.91991E2,9.664249E1,1.2130652E2,1.2159027E1,4.7072906E1,1.7867722E1,2.7828278E1,0E0,0E0,0E0,0E0,0E0,0E0,0E0,0E0],"parents":[2147483647,0,0,1,1,2,2,3,3,4,4,5,5,6,6],"right_children":[2,4,6,8,10,12,14,-1,-1,-1,-1,-1,-1,-1,-1],"split_conditions":[-1.9060941E-1,-7.457028E-1,8.166622E-1,-9.4566673E-1,-4.3054092E-1,-4.5509666E-1,6.7797554E-1,-3.5032302E-3,-2.0590029E-3,-1.1764801E-3,-3.045537E-4,2.42085E-4,9.805899E-4,1.9259977E-3,3.2898772E-3],"split_indices":[8,8,8,8,8,2,5,0,0,0,0,0,0,0,0],"split_type":[0,0,0,0,0,0,0,0,0,0,0,0,0,0,0],"sum_hessian":[5.9062555E4,3.1660098E4,2.7402457E4,5.9924307E3,2.5667666E4,1.9888123E4,7.514335E3,6.921999E2,5.300231E3,1.5110022E4,1.0557644E4,4.193542E3,1.5694581E4,5.37006E3,2.1442744E3],"tree_param":{"num_deleted":"0","num_feature":"17","num_nodes":"15","size_leaf_vector":"1"}},{"base_weights":[-6.06278E-4,1.863237E-1,-2.2373572E-1,3.3304548E-1,9.6223556E-2,-1.5119734E-1,-3.8451377E-1,5.7094893E-3,3.0664888E-3,1.5103866E-3,2.2855717E-4,-8.35115E-4,-2.0301233E-3,-3.192166E-3,-4.5248494E-3],"categories":[],"categories_nodes":[],"categories_segments":[],"categories_sizes":[],"default_left":[0,0,0,0,0,0,0,0,0,0,0,0,0,0,0],"id":46,"left_children":[1,3,5,7,9,11,13,-1,-1,-1,-1,-1,-1,-1,-1],"loss_changes":[2.4685786E3,4.251089E2,3.1385474E2,7.514453E1,8.008847E1,6.488214E1,3.5704712E1,0E0,0E0,0E0,0E0,0E0,0E0,0E0,0E0],"parents":[2147483647,0,0,1,1,2,2,3,3,4,4,5,5,6,6],"right_children":[2,4,6,8,10,12,14,-1,-1,-1,-1,-1,-1,-1,-1],"split_conditions":[-1.9060941E-1,-6.164341E-1,6.913671E-1,-9.12321E-1,-3.8639152E-1,6.40112E-2,1.3644525E0,5.7094893E-3,3.0664888E-3,1.5103866E-3,2.2855717E-4,-8.35115E-4,-2.0301233E-3,-3.192166E-3,-4.5248494E-3],"split_indices":[8,8,8,8,8,8,8,0,0,0,0,0,0,0,0],"split_type":[0,0,0,0,0,0,0,0,0,0,0,0,0,0,0],"sum_hessian":[5.9174035E4,3.2196928E4,2.6977107E4,1.2240138E4,1.9956791E4,1.8600861E4,8.376246E3,1.2083813E3,1.1031757E4,1.1411801E4,8.54499E3,8.0792754E3,1.0521585E4,4.2941875E3,4.0820588E3],"tree_param":{"num_deleted":"0","num_feature":"17","num_nodes":"15","size_leaf_vector":"1"}},{"base_weights":[-1.7998767E-3,-1.07319996E-1,7.841338E-2,-1.8732816E-1,-5.7283882E-2,3.5692573E-2,1.4376457E-1,-3.0250465E-3,-1.6885331E-3,1.6289891E-4,-8.3139923E-4,8.880877E-4,4.8274625E-5,1.6563442E-3,4.934429E-4],"categories":[],"categories_nodes":[],"categories_segments":[],"categories_sizes":[],"default_left":[0,0,0,0,0,0,0,0,0,0,0,0,0,0,0],"id":47,"left_children":[1,3,5,7,9,11,13,-1,-1,-1,-1,-1,-1,-1,-1],"loss_changes":[4.9972015E2,1.017923E2,9.341937E1,2.013092E1,2.994862E1,3.3175713E1,2.7095428E1,0E0,0E0,0E0,0E0,0E0,0E0,0E0,0E0],"parents":[2147483647,0,0,1,1,2,2,3,3,4,4,5,5,6,6],"right_children":[2,4,6,8,10,12,14,-1,-1,-1,-1,-1,-1,-1,-1],"split_conditions":[-3.369998E-1,-6.5880233E-1,3.454377E-1,-8.9902574E-1,-3.084003E-1,-2.725058E-1,1.1243569E0,-3.0250465E-3,-1.6885331E-3,1.6289891E-4,-8.3139923E-4,8.880877E-4,4.8274625E-5,1.6563442E-3,4.934429E-4],"split_indices":[8,8,8,8,12,6,11,0,0,0,0,0,0,0,0],"split_type":[0,0,0,0,0,0,0,0,0,0,0,0,0,0,0],"sum_hessian":[5.9026484E4,2.549661E4,3.3529875E4,9.797161E3,1.5699447E4,2.0289459E4,1.3240418E4,1.3361699E3,8.460991E3,4.072958E3,1.1626489E4,7.4414966E3,1.2847962E4,1.0738726E4,2.501692E3],"tree_param":{"num_deleted":"0","num_feature":"17","num_nodes":"15","size_leaf_vector":"1"}},{"base_weights":[-1.3595326E-4,-1.0897814E-1,1.261351E-1,-2.2741264E-1,-8.1490986E-2,7.906091E-2,2.1676025E-1,-3.577454E-3,-2.1006903E-3,-1.151517E-3,-3.328902E-4,5.793993E-4,1.231615E-3,1.9856705E-3,3.2556423E-3],"categories":[],"categories_nodes":[],"categories_segments":[],"categories_sizes":[],"default_left":[0,0,0,0,0,0,0,0,0,0,0,0,0,0,0],"id":48,"left_children":[1,3,5,7,9,11,13,-1,-1,-1,-1,-1,-1,-1,-1],"loss_changes":[8.116669E2,1.0286954E2,1.1623773E2,1.2542084E1,4.163127E1,1.6555E1,1.7631348E1,0E0,0E0,0E0,0E0,0E0,0E0,0E0,0E0],"parents":[2147483647,0,0,1,1,2,2,3,3,4,4,5,5,6,6],"right_children":[2,4,6,8,10,12,14,-1,-1,-1,-1,-1,-1,-1,-1],"split_conditions":[-1.9060941E-1,-7.457028E-1,6.264479E-1,-9.4566673E-1,-4.3054092E-1,5.00784E-1,1.3193154E0,-3.577454E-3,-2.1006903E-3,-1.151517E-3,-3.328902E-4,5.793993E-4,1.231615E-3,1.9856705E-3,3.2556423E-3],"split_indices":[8,8,8,8,8,9,5,0,0,0,0,0,0,0,0],"split_type":[0,0,0,0,0,0,0,0,0,0,0,0,0,0,0],"sum_hessian":[5.9048984E4,3.1717754E4,2.733123E4,5.9609453E3,2.5756809E4,1.8001145E4,9.330087E3,6.817767E2,5.279169E3,1.51496875E4,1.0607122E4,1.219491E4,5.806234E3,8.013466E3,1.3166217E3],"tree_param":{"num_deleted":"0","num_feature":"17","num_nodes":"15","size_leaf_vector":"1"}},{"base_weights":[3.4006021E-3,-2.745399E-1,4.3586623E-2,-4.258405E-1,-2.1041727E-1,-1.2638988E-1,6.658061E-2,-4.7650724E-3,-3.4709398E-3,-1.877623E-3,-3.500877E-3,-2.1229745E-3,-7.94898E-4,9.667464E-4,-1.1142241E-3],"categories":[],"categories_nodes":[],"categories_segments":[],"categories_sizes":[],"default_left":[0,0,0,0,0,0,0,0,0,0,0,0,0,0,0],"id":49,"left_children":[1,3,5,7,9,11,13,-1,-1,-1,-1,-1,-1,-1,-1],"loss_changes":[6.588133E2,7.119806E1,2.0147812E2,7.1595764E0,1.57369995E1,2.436084E1,2.4334335E2,0E0,0E0,0E0,0E0,0E0,0E0,0E0,0E0],"parents":[2147483647,0,0,1,1,2,2,3,3,4,4,5,5,6,6],"right_children":[2,4,6,8,10,12,14,-1,-1,-1,-1,-1,-1,-1,-1],"split_conditions":[-9.0291005E-1,-1.7715551E0,-6.8857265E-1,-2.2399292E0,-2.8388745E-1,-1.2305783E0,7.6809156E-1,-4.7650724E-3,-3.4709398E-3,-1.877623E-3,-3.500877E-3,-2.1229745E-3,-7.94898E-4,9.667464E-4,-1.1142241E-3],"split_indices":[7,7,10,7,2,10,10,0,0,0,0,0,0,0,0],"split_type":[0,0,0,0,0,0,0,0,0,0,0,0,0,0,0],"sum_hessian":[5.8994496E4,7.44541E3,5.1549086E4,2.2031538E3,5.2422563E3,6.1346265E3,4.541446E4,1.3174993E3,8.8565454E2,4.526866E3,7.1539014E2,2.1526426E3,3.981984E3,3.885359E4,6.5608696E3],"tree_param":{"num_deleted":"0","num_feature":"17","num_nodes":"15","size_leaf_vector":"1"}},{"base_weights":[-1.6588937E-3,-1.0662193E-1,7.80429E-2,-1.8906227E-1,-5.905813E-2,3.4429345E-2,1.32802E-1,-2.10893E-3,-1.2181259E-3,-1.329766E-4,-9.6014247E-4,8.3561754E-4,7.2022376E-5,1.7428804E-3,8.8037946E-4],"categories":[],"categories_nodes":[],"categories_segments":[],"categories_sizes":[],"default_left":[0,0,0,0,0,0,0,0,0,0,0,0,0,0,0],"id":50,"left_children":[1,3,5,7,9,11,13,-1,-1,-1,-1,-1,-1,-1,-1],"loss_changes":[4.9401245E2,9.9650024E1,7.995354E1,1.3216095E1,2.7246136E1,2.49175E1,2.7268127E1,0E0,0E0,0E0,0E0,0E0,0E0,0E0,0E0],"parents":[2147483647,0,0,1,1,2,2,3,3,4,4,5,5,6,6],"right_children":[2,4,6,8,10,12,14,-1,-1,-1,-1,-1,-1,-1,-1],"split_conditions":[-3.369998E-1,-6.682664E-1,2.554695E-1,5.827112E-1,-1.6632078E-2,-2.803041E-1,-3.8836658E-2,-2.10893E-3,-1.2181259E-3,-1.329766E-4,-9.6014247E-4,8.3561754E-4,7.2022376E-5,1.7428804E-3,8.8037946E-4],"split_indices":[8,8,8,5,6,6,11,0,0,0,0,0,0,0,0],"split_type":[0,0,0,0,0,0,0,0,0,0,0,0,0,0,0],"sum_hessian":[5.903845E4,2.5485826E4,3.3552625E4,9.311206E3,1.6174621E4,1.8691754E4,1.4860869E4,7.01004E3,2.3011655E3,7.241624E3,8.932996E3,6.6480347E3,1.204372E4,7.6937314E3,7.167138E3],"tree_param":{"num_deleted":"0","num_feature":"17","num_nodes":"15","size_leaf_vector":"1"}},{"base_weights":[-1.2202142E-3,-1.5255821E-2,1.8017358E-1,1.6243924E-1,-2.914485E-2,1.3903348E-1,3.1817403E-1,1.2915885E-3,2.792162E-3,-4.0656768E-4,7.397246E-4,4.0379977E-3,1.2131791E-3,3.7246912E-3,1.8528876E-3],"categories":[],"categories_nodes":[],"categories_segments":[],"categories_sizes":[],"default_left":[0,0,0,0,0,0,0,0,0,0,0,0,0,0,0],"id":51,"left_children":[1,3,5,7,9,11,13,-1,-1,-1,-1,-1,-1,-1,-1],"loss_changes":[1.5034262E2,1.3532254E2,2.3396713E1,1.4854797E1,6.041142E1,1.4620182E1,6.0552673E0,0E0,0E0,0E0,0E0,0E0,0E0,0E0,0E0],"parents":[2147483647,0,0,1,1,2,2,3,3,4,4,5,5,6,6],"right_children":[2,4,6,8,10,12,14,-1,-1,-1,-1,-1,-1,-1,-1],"split_conditions":[1.2132651E0,-1.2926482E0,2.3739285E0,-5.6886524E-1,8.228873E-1,-1.200984E0,1.1020857E0,1.2915885E-3,2.792162E-3,-4.0656768E-4,7.397246E-4,4.0379977E-3,1.2131791E-3,3.7246912E-3,1.8528876E-3],"split_indices":[12,12,12,1,0,14,5,0,0,0,0,0,0,0,0],"split_type":[0,0,0,0,0,0,0,0,0,0,0,0,0,0,0],"sum_hessian":[5.910555E4,5.487E4,4.235553E3,3.9687444E3,5.0901254E4,3.276162E3,9.593913E2,3.1033975E3,8.6534686E2,4.580082E4,5.100433E3,1.9508731E2,3.0810747E3,6.6936005E2,2.9003125E2],"tree_param":{"num_deleted":"0","num_feature":"17","num_nodes":"15","size_leaf_vector":"1"}},{"base_weights":[1.8867832E-3,1.8388057E-1,-2.1583611E-1,3.22836E-1,8.813766E-2,-1.4084615E-1,-3.8342544E-1,4.403528E-3,2.6624724E-3,1.6223714E-3,3.0208653E-4,-7.3223305E-4,-1.9295644E-3,-3.0674909E-3,-4.354968E-3],"categories":[],"categories_nodes":[],"categories_segments":[],"categories_sizes":[],"default_left":[0,0,0,0,0,0,0,0,0,0,0,0,0,0,0],"id":52,"left_children":[1,3,5,7,9,11,13,-1,-1,-1,-1,-1,-1,-1,-1],"loss_changes":[2.3395632E3,4.2735193E2,3.3703223E2,8.592175E1,8.1572266E1,6.5147156E1,3.1740112E1,0E0,0E0,0E0,0E0,0E0,0E0,0E0,0E0],"parents":[2147483647,0,0,1,1,2,2,3,3,4,4,5,5,6,6],"right_children":[2,4,6,8,10,12,14,-1,-1,-1,-1,-1,-1,-1,-1],"split_conditions":[-1.9060941E-1,-5.9725344E-1,6.913671E-1,-7.9363406E-1,-4.3054092E-1,6.40112E-2,1.1645495E0,4.403528E-3,2.6624724E-3,1.6223714E-3,3.0208653E-4,-7.3223305E-4,-1.9295644E-3,-3.0674909E-3,-4.354968E-3],"split_indices":[8,8,8,8,8,8,8,0,0,0,0,0,0,0,0],"split_type":[0,0,0,0,0,0,0,0,0,0,0,0,0,0,0],"sum_hessian":[5.903458E4,3.215865E4,2.687593E4,1.3109709E4,1.9048941E4,1.8578096E4,8.297834E3,4.244228E3,8.865481E3,8.346416E3,1.0702525E4,8.0991514E3,1.0478944E4,3.3777197E3,4.9201143E3],"tree_param":{"num_deleted":"0","num_feature":"17","num_nodes":"15","size_leaf_vector":"1"}},{"base_weights":[1.7132614E-3,-9.595683E-2,8.437727E-2,-1.868905E-1,-4.77144E-2,2.8493673E-2,1.2812684E-1,-2.448274E-3,-1.6306107E-3,2.1472495E-4,-7.7366736E-4,5.726104E-4,-3.0351873E-4,1.926103E-3,9.672023E-4],"categories":[],"categories_nodes":[],"categories_segments":[],"categories_sizes":[],"default_left":[0,0,0,0,0,0,0,0,0,0,0,0,0,0,0],"id":53,"left_children":[1,3,5,7,9,11,13,-1,-1,-1,-1,-1,-1,-1,-1],"loss_changes":[4.774639E2,1.186196E2,7.814816E1,1.2350739E1,3.6422783E1,2.387651E1,3.598419E1,0E0,0E0,0E0,0E0,0E0,0E0,0E0,0E0],"parents":[2147483647,0,0,1,1,2,2,3,3,4,4,5,5,6,6],"right_children":[2,4,6,8,10,12,14,-1,-1,-1,-1,-1,-1,-1,-1],"split_conditions":[-3.0130044E-1,-6.682664E-1,1.1836268E-1,-8.382657E-1,-3.8624305E-1,3.6128074E-1,-6.1240286E-1,-2.448274E-3,-1.6306107E-3,2.1472495E-4,-7.7366736E-4,5.726104E-4,-3.0351873E-4,1.926103E-3,9.672023E-4],"split_indices":[8,8,8,8,1,13,11,0,0,0,0,0,0,0,0],"split_type":[0,0,0,0,0,0,0,0,0,0,0,0,0,0,0],"sum_hessian":[5.912886E4,2.7098379E4,3.2030479E4,9.38091E3,1.7717469E4,1.4078455E4,1.7952023E4,2.708165E3,6.672745E3,5.305639E3,1.241183E4,9.467352E3,4.611103E3,5.860942E3,1.2091082E4],"tree_param":{"num_deleted":"0","num_feature":"17","num_nodes":"15","size_leaf_vector":"1"}},{"base_weights":[1.3570396E-3,-1.03469916E-1,1.2061652E-1,-1.6318522E-1,-4.9856085E-2,7.509919E-2,2.161254E-1,-2.1195984E-3,-1.3044334E-3,-8.658298E-4,-2.770055E-4,4.2634772E-4,9.847567E-4,1.9985868E-3,3.7804663E-3],"categories":[],"categories_nodes":[],"categories_segments":[],"categories_sizes":[],"default_left":[0,0,0,0,0,0,0,0,0,0,0,0,0,0,0],"id":54,"left_children":[1,3,5,7,9,11,13,-1,-1,-1,-1,-1,-1,-1,-1],"loss_changes":[7.393888E2,1.0050339E2,1.1992172E2,2.3278137E1,1.3380234E1,1.4070908E1,2.2542328E1,0E0,0E0,0E0,0E0,0E0,0E0,0E0,0E0],"parents":[2147483647,0,0,1,1,2,2,3,3,4,4,5,5,6,6],"right_children":[2,4,6,8,10,12,14,-1,-1,-1,-1,-1,-1,-1,-1],"split_conditions":[-1.9647992E-1,-5.5621326E-1,6.691061E-1,-7.457028E-1,-4.3054092E-1,-2.2789492E-1,2.184029E0,-2.1195984E-3,-1.3044334E-3,-8.658298E-4,-2.770055E-4,4.2634772E-4,9.847567E-4,1.9985868E-3,3.7804663E-3],"split_indices":[8,8,8,8,8,6,11,0,0,0,0,0,0,0,0],"split_type":[0,0,0,0,0,0,0,0,0,0,0,0,0,0,0],"sum_hessian":[5.913213E4,3.1466188E4,2.7665941E4,1.4872389E4,1.6593799E4,1.874968E4,8.916262E3,5.950377E3,8.922012E3,6.2212505E3,1.0372548E4,7.8729316E3,1.0876748E4,8.1180625E3,7.981987E2],"tree_param":{"num_deleted":"0","num_feature":"17","num_nodes":"15","size_leaf_vector":"1"}},{"base_weights":[7.455721E-4,2.0312904E-1,-1.9648334E-1,3.3221355E-1,1.1035694E-1,-1.1636947E-1,-3.6310506E-1,5.775231E-3,3.051689E-3,1.5784169E-3,5.185717E-4,-4.833385E-4,-1.7821139E-3,-2.9315108E-3,-4.298511E-3],"categories":[],"categories_nodes":[],"categories_segments":[],"categories_sizes":[],"default_left":[0,0,0,0,0,0,0,0,0,0,0,0,0,0,0],"id":55,"left_children":[1,3,5,7,9,11,13,-1,-1,-1,-1,-1,-1,-1,-1],"loss_changes":[2.3640793E3,3.494607E2,3.9967285E2,7.9290405E1,4.7031845E1,8.499701E1,4.4087524E1,0E0,0E0,0E0,0E0,0E0,0E0,0E0,0E0],"parents":[2147483647,0,0,1,1,2,2,3,3,4,4,5,5,6,6],"right_children":[2,4,6,8,10,12,14,-1,-1,-1,-1,-1,-1,-1,-1],"split_conditions":[-2.6375574E-1,-6.164341E-1,5.651206E-1,-9.12321E-1,-4.3054092E-1,1.190563E-2,1.1645495E0,5.775231E-3,3.051689E-3,1.5784169E-3,5.185717E-4,-4.833385E-4,-1.7821139E-3,-2.9315108E-3,-4.298511E-3],"split_indices":[8,8,8,8,8,8,8,0,0,0,0,0,0,0,0],"split_type":[0,0,0,0,0,0,0,0,0,0,0,0,0,0,0],"sum_hessian":[5.9216387E4,2.922871E4,2.9987678E4,1.2212443E4,1.7016268E4,2.026061E4,9.727069E3,1.1989127E3,1.1013531E4,9.378266E3,7.638002E3,9.659145E3,1.0601464E4,4.7698794E3,4.9571895E3],"tree_param":{"num_deleted":"0","num_feature":"17","num_nodes":"15","size_leaf_vector":"1"}},{"base_weights":[1.4904038E-3,1.243588E-1,-2.7040595E-2,1.9852766E-1,8.7386645E-2,1.6156325E-2,-7.0852205E-2,2.3903244E-3,1.0568703E-3,2.2176213E-3,6.357006E-4,9.386988E-4,1.4507985E-5,7.2963675E-4,-7.931377E-4],"categories":[],"categories_nodes":[],"categories_segments":[],"categories_sizes":[],"default_left":[0,0,0,0,0,0,0,0,0,0,0,0,0,0,0],"id":56,"left_children":[1,3,5,7,9,11,13,-1,-1,-1,-1,-1,-1,-1,-1],"loss_changes":[2.0756683E2,3.0228882E1,9.09465E1,1.34405365E1,2.3535362E1,2.7530563E1,2.9064125E1,0E0,0E0,0E0,0E0,0E0,0E0,0E0,0E0],"parents":[2147483647,0,0,1,1,2,2,3,3,4,4,5,5,6,6],"right_children":[2,4,6,8,10,12,14,-1,-1,-1,-1,-1,-1,-1,-1],"split_conditions":[-6.1240286E-1,-9.104024E-1,-1.9366695E-2,9.221236E-1,-1.0388225E0,-4.661427E-1,-7.549354E-1,2.3903244E-3,1.0568703E-3,2.2176213E-3,6.357006E-4,9.386988E-4,1.4507985E-5,7.2963675E-4,-7.931377E-4],"split_indices":[11,14,3,5,13,12,10,0,0,0,0,0,0,0,0],"split_type":[0,0,0,0,0,0,0,0,0,0,0,0,0,0,0],"sum_hessian":[5.9173227E4,1.115455E4,4.8018676E4,3.6944055E3,7.460144E3,2.4169053E4,2.3849623E4,2.5592183E3,1.1351871E3,1.1105828E3,6.349561E3,3.8306248E3,2.0338428E4,1.3165608E3,2.253306E4],"tree_param":{"num_deleted":"0","num_feature":"17","num_nodes":"15","size_leaf_vector":"1"}},{"base_weights":[-7.394493E-5,-1.0626337E-1,1.196956E-1,-1.7011404E-1,-5.3569444E-2,6.852579E-2,2.0837773E-1,-2.1954908E-3,-1.3450586E-3,-8.975808E-4,-2.7833096E-4,4.496462E-4,1.2233136E-3,1.8416974E-3,3.1082828E-3],"categories":[],"categories_nodes":[],"categories_segments":[],"categories_sizes":[],"default_left":[0,0,0,0,0,0,0,0,0,0,0,0,0,0,0],"id":57,"left_children":[1,3,5,7,9,11,13,-1,-1,-1,-1,-1,-1,-1,-1],"loss_changes":[7.5133405E2,1.0510083E2,1.2561545E2,2.4404663E1,1.586496E1,2.2138222E1,2.4384064E1,0E0,0E0,0E0,0E0,0E0,0E0,0E0,0E0],"parents":[2147483647,0,0,1,1,2,2,3,3,4,4,5,5,6,6],"right_children":[2,4,6,8,10,12,14,-1,-1,-1,-1,-1,-1,-1,-1],"split_conditions":[-1.9647992E-1,-5.700451E-1,5.651206E-1,-7.457028E-1,-4.259822E-1,5.5714655E-1,1.2132651E0,-2.1954908E-3,-1.3450586E-3,-8.975808E-4,-2.7833096E-4,4.496462E-4,1.2233136E-3,1.8416974E-3,3.1082828E-3],"split_indices":[8,8,8,8,8,9,12,0,0,0,0,0,0,0,0],"split_type":[0,0,0,0,0,0,0,0,0,0,0,0,0,0,0],"sum_hessian":[5.906628E4,3.1312805E4,2.7753477E4,1.4144006E4,1.7168797E4,1.761165E4,1.0141825E4,5.8996196E3,8.244387E3,7.1141245E3,1.0054673E4,1.2267528E4,5.3441216E3,8.222649E3,1.9191761E3],"tree_param":{"num_deleted":"0","num_feature":"17","num_nodes":"15","size_leaf_vector":"1"}},{"base_weights":[1.5699978E-3,2.003219E-1,-1.9282877E-1,3.4092256E-1,1.1745253E-1,-1.0930699E-1,-3.5582587E-1,5.5703945E-3,3.1384223E-3,1.6791974E-3,4.6640186E-4,-6.003676E-4,-1.8075675E-3,-2.9562118E-3,-4.4560325E-3],"categories":[],"categories_nodes":[],"categories_segments":[],"categories_sizes":[],"default_left":[0,0,0,0,0,0,0,0,0,0,0,0,0,0,0],"id":58,"left_children":[1,3,5,7,9,11,13,-1,-1,-1,-1,-1,-1,-1,-1],"loss_changes":[2.2843655E3,3.39995E2,4.0620935E2,6.1665894E1,6.5527725E1,6.930951E1,5.3295776E1,0E0,0E0,0E0,0E0,0E0,0E0,0E0,0E0],"parents":[2147483647,0,0,1,1,2,2,3,3,4,4,5,5,6,6],"right_children":[2,4,6,8,10,12,14,-1,-1,-1,-1,-1,-1,-1,-1],"split_conditions":[-2.6375574E-1,-6.449942E-1,5.277835E-1,-9.12321E-1,-4.3054092E-1,8.9804515E-2,1.3644525E0,5.5703945E-3,3.1384223E-3,1.6791974E-3,4.6640186E-4,-6.003676E-4,-1.8075675E-3,-2.9562118E-3,-4.4560325E-3],"split_indices":[8,8,8,8,8,8,8,0,0,0,0,0,0,0,0],"split_type":[0,0,0,0,0,0,0,0,0,0,0,0,0,0,0],"sum_hessian":[5.9113395E4,2.92319E4,2.9881494E4,1.0829813E4,1.8402088E4,1.976708E4,1.0114414E4,1.190907E3,9.638907E3,1.0732308E4,7.6697803E3,1.1713145E4,8.0539355E3,6.073878E3,4.0405366E3],"tree_param":{"num_deleted":"0","num_feature":"17","num_nodes":"15","size_leaf_vector":"1"}},{"base_weights":[6.1541103E-4,-1.00722276E-1,7.69913E-2,-1.7861146E-1,-5.4884657E-2,3.1318385E-2,1.2955952E-1,-2.7889775E-3,-1.6162499E-3,-1.9108047E-4,-1.2203094E-3,6.827851E-4,-2.4833772E-4,1.8198459E-3,8.9021487E-4],"categories":[],"categories_nodes":[],"categories_segments":[],"categories_sizes":[],"default_left":[0,0,0,0,0,0,0,0,0,0,0,0,0,0,0],"id":59,"left_children":[1,3,5,7,9,11,13,-1,-1,-1,-1,-1,-1,-1,-1],"loss_changes":[4.567511E2,9.025189E1,8.063153E1,1.532016E1,3.8232513E1,3.746572E1,3.287854E1,0E0,0E0,0E0,0E0,0E0,0E0,0E0,0E0],"parents":[2147483647,0,0,1,1,2,2,3,3,4,4,5,5,6,6],"right_children":[2,4,6,8,10,12,14,-1,-1,-1,-1,-1,-1,-1,-1],"split_conditions":[-3.369998E-1,-6.682664E-1,2.2058697E-1,-8.9902574E-1,2.0213132E-1,5.1344875E-2,-3.0078775E-1,-2.7889775E-3,-1.6162499E-3,-1.9108047E-4,-1.2203094E-3,6.827851E-4,-2.4833772E-4,1.8198459E-3,8.9021487E-4],"split_indices":[8,8,8,8,2,2,11,0,0,0,0,0,0,0,0],"split_type":[0,0,0,0,0,0,0,0,0,0,0,0,0,0,0],"sum_hessian":[5.900669E4,2.5352969E4,3.3653723E4,9.37918E3,1.5973789E4,1.8022348E4,1.5631376E4,1.3388398E3,8.0403394E3,1.0435111E4,5.5386777E3,1.0878619E4,7.1437285E3,6.7979434E3,8.833433E3],"tree_param":{"num_deleted":"0","num_feature":"17","num_nodes":"15","size_leaf_vector":"1"}},{"base_weights":[-1.443486E-3,-1.0482578E-1,1.19564995E-1,-1.4513358E-1,-2.6045052E-2,6.9750026E-2,2.0430617E-1,-2.180325E-3,-1.1638675E-3,-1.1695876E-3,-1.56054E-4,5.1584374E-4,1.2683837E-3,1.7821498E-3,3.3231308E-3],"categories":[],"categories_nodes":[],"categories_segments":[],"categories_sizes":[],"default_left":[0,0,0,0,0,0,0,0,0,0,0,0,0,0,0],"id":60,"left_children":[1,3,5,7,9,11,13,-1,-1,-1,-1,-1,-1,-1,-1],"loss_changes":[7.403603E2,1.01170685E2,1.1473865E2,4.3769684E1,1.012611E1,1.7609756E1,3.2868744E1,0E0,0E0,0E0,0E0,0E0,0E0,0E0,0E0],"parents":[2147483647,0,0,1,1,2,2,3,3,4,4,5,5,6,6],"right_children":[2,4,6,8,10,12,14,-1,-1,-1,-1,-1,-1,-1,-1],"split_conditions":[-1.8487199E-1,-4.3054092E-1,5.651206E-1,-7.457028E-1,-7.479371E-1,6.4070046E-1,1.3581038E0,-2.180325E-3,-1.1638675E-3,-1.1695876E-3,-1.56054E-4,5.1584374E-4,1.2683837E-3,1.7821498E-3,3.3231308E-3],"split_indices":[8,8,8,8,14,14,11,0,0,0,0,0,0,0,0],"split_type":[0,0,0,0,0,0,0,0,0,0,0,0,0,0,0],"sum_hessian":[5.917201E4,3.191484E4,2.725717E4,2.1101465E4,1.0813375E4,1.7179275E4,1.0077894E4,5.9486396E3,1.5152826E4,1.0986838E3,9.714691E3,1.3052858E4,4.1264175E3,8.387976E3,1.6899175E3],"tree_param":{"num_deleted":"0","num_feature":"17","num_nodes":"15","size_leaf_vector":"1"}},{"base_weights":[3.4717077E-3,1.9666953E-1,-1.9287586E-1,3.655182E-1,1.2411331E-1,-1.122285E-1,-3.572393E-1,5.7158372E-3,3.3381404E-3,1.743593E-3,4.567552E-4,-5.7709427E-4,-1.7565496E-3,-2.9478106E-3,-4.4418275E-3],"categories":[],"categories_nodes":[],"categories_segments":[],"categories_sizes":[],"default_left":[0,0,0,0,0,0,0,0,0,0,0,0,0,0,0],"id":61,"left_children":[1,3,5,7,9,11,13,-1,-1,-1,-1,-1,-1,-1,-1],"loss_changes":[2.241824E3,3.6424707E2,3.8781604E2,5.6592896E1,8.190756E1,6.7741135E1,5.0957275E1,0E0,0E0,0E0,0E0,0E0,0E0,0E0,0E0],"parents":[2147483647,0,0,1,1,2,2,3,3,4,4,5,5,6,6],"right_children":[2,4,6,8,10,12,14,-1,-1,-1,-1,-1,-1,-1,-1],"split_conditions":[-2.5331515E-1,-6.825157E-1,5.651206E-1,-9.12321E-1,-4.3054092E-1,6.40112E-2,1.3644525E0,5.7158372E-3,3.3381404E-3,1.743593E-3,4.567552E-4,-5.7709427E-4,-1.7565496E-3,-2.9478106E-3,-4.4418275E-3],"split_indices":[8,8,8,8,8,8,8,0,0,0,0,0,0,0,0],"split_type":[0,0,0,0,0,0,0,0,0,0,0,0,0,0,0],"sum_hessian":[5.9088027E4,2.978546E4,2.9302566E4,8.942056E3,2.0843404E4,1.9667107E4,9.635459E3,1.1767727E3,7.7652827E3,1.269337E4,8.150034E3,1.0589809E4,9.077299E3,5.6267676E3,4.0086921E3],"tree_param":{"num_deleted":"0","num_feature":"17","num_nodes":"15","size_leaf_vector":"1"}},{"base_weights":[1.2379003E-3,-9.4328925E-2,7.732347E-2,-1.754999E-1,-4.8725646E-2,2.6195105E-2,1.2357889E-1,-2.9279375E-3,-1.590444E-3,1.2384723E-4,-8.519149E-4,5.606857E-4,-2.7365197E-4,1.6735957E-3,7.566795E-4],"categories":[],"categories_nodes":[],"categories_segments":[],"categories_sizes":[],"default_left":[0,0,0,0,0,0,0,0,0,0,0,0,0,0,0],"id":62,"left_children":[1,3,5,7,9,11,13,-1,-1,-1,-1,-1,-1,-1,-1],"loss_changes":[4.3071564E2,9.6907394E1,7.784512E1,1.752301E1,3.756746E1,2.513192E1,3.599582E1,0E0,0E0,0E0,0E0,0E0,0E0,0E0,0E0],"parents":[2147483647,0,0,1,1,2,2,3,3,4,4,5,5,6,6],"right_children":[2,4,6,8,10,12,14,-1,-1,-1,-1,-1,-1,-1,-1],"split_conditions":[-3.2251087E-1,-6.682664E-1,1.4789766E-1,-9.12321E-1,-1.07292935E-1,2.9817358E-1,-3.0629649E-3,-2.9279375E-3,-1.590444E-3,1.2384723E-4,-8.519149E-4,5.606857E-4,-2.7365197E-4,1.6735957E-3,7.566795E-4],"split_indices":[8,8,8,8,9,13,11,0,0,0,0,0,0,0,0],"split_type":[0,0,0,0,0,0,0,0,0,0,0,0,0,0,0],"sum_hessian":[5.92277E4,2.6246543E4,3.2981156E4,9.428404E3,1.6818139E4,1.5679403E4,1.7301754E4,1.1421918E3,8.286213E3,6.2762026E3,1.0541937E4,1.0077228E4,5.6021763E3,9.023137E3,8.278617E3],"tree_param":{"num_deleted":"0","num_feature":"17","num_nodes":"15","size_leaf_vector":"1"}},{"base_weights":[2.9402933E-4,-1.05039224E-1,1.2221911E-1,-1.4666332E-1,-4.22708E-2,7.97863E-2,2.1368845E-1,-2.0926355E-3,-1.1801786E-3,-1.2572291E-3,-3.590599E-4,7.5228803E-4,2.4826934E-3,1.9931798E-3,3.4436984E-3],"categories":[],"categories_nodes":[],"categories_segments":[],"categories_sizes":[],"default_left":[0,0,0,0,0,0,0,0,0,0,0,0,0,0,0],"id":63,"left_children":[1,3,5,7,9,11,13,-1,-1,-1,-1,-1,-1,-1,-1],"loss_changes":[7.6054364E2,8.2775665E1,1.0616995E2,3.377939E1,6.552326E0,1.3994308E1,1.5430389E1,0E0,0E0,0E0,0E0,0E0,0E0,0E0,0E0],"parents":[2147483647,0,0,1,1,2,2,3,3,4,4,5,5,6,6],"right_children":[2,4,6,8,10,12,14,-1,-1,-1,-1,-1,-1,-1,-1],"split_conditions":[-1.9060941E-1,-4.734708E-1,6.913671E-1,-7.457028E-1,-1.4065199E0,2.0816152E0,2.1348202E0,-2.0926355E-3,-1.1801786E-3,-1.2572291E-3,-3.590599E-4,7.5228803E-4,2.4826934E-3,1.9931798E-3,3.4436984E-3],"split_indices":[8,8,8,8,1,7,10,0,0,0,0,0,0,0,0],"split_type":[0,0,0,0,0,0,0,0,0,0,0,0,0,0,0],"sum_hessian":[5.920828E4,3.176147E4,2.744681E4,1.9083725E4,1.2677746E4,1.876294E4,8.683871E3,5.970241E3,1.3113482E4,8.8062067E2,1.1797125E4,1.8281586E4,4.8135287E2,7.84182E3,8.4205133E2],"tree_param":{"num_deleted":"0","num_feature":"17","num_nodes":"15","size_leaf_vector":"1"}},{"base_weights":[7.753169E-6,-2.7077517E-1,3.874057E-2,-4.121627E-1,-2.0104785E-1,6.427902E-2,-1.00543275E-1,-4.7125537E-3,-3.3996466E-3,-1.7615701E-3,-3.5561419E-3,-7.949255E-4,1.0239194E-3,-6.5855845E-4,-2.290666E-3],"categories":[],"categories_nodes":[],"categories_segments":[],"categories_sizes":[],"default_left":[0,0,0,0,0,0,0,0,0,0,0,0,0,0,0],"id":64,"left_children":[1,3,5,7,9,11,13,-1,-1,-1,-1,-1,-1,-1,-1],"loss_changes":[6.1977924E2,7.1871216E1,1.8397157E2,8.766724E0,1.826332E1,2.3960771E2,3.533838E1,0E0,0E0,0E0,0E0,0E0,0E0,0E0,0E0],"parents":[2147483647,0,0,1,1,2,2,3,3,4,4,5,5,6,6],"right_children":[2,4,6,8,10,12,14,-1,-1,-1,-1,-1,-1,-1,-1],"split_conditions":[-9.0291005E-1,-1.689726E0,6.645188E-1,-2.2399292E0,-2.8388745E-1,-4.9941915E-1,1.5589399E0,-4.7125537E-3,-3.3996466E-3,-1.7615701E-3,-3.5561419E-3,-7.949255E-4,1.0239194E-3,-6.5855845E-4,-2.290666E-3],"split_indices":[7,7,0,7,2,0,0,0,0,0,0,0,0,0,0],"split_type":[0,0,0,0,0,0,0,0,0,0,0,0,0,0,0],"sum_hessian":[5.91052E4,7.3894487E3,5.171575E4,2.4277512E3,4.9616978E3,4.371098E4,8.004772E3,1.3122302E3,1.115521E3,4.2882935E3,6.7340424E2,9.152768E3,3.455821E4,6.315588E3,1.6891843E3],"tree_param":{"num_deleted":"0","num_feature":"17","num_nodes":"15","size_leaf_vector":"1"}},{"base_weights":[-1.7016719E-3,-1.0229617E-1,7.573758E-2,-1.866327E-1,-6.0863327E-2,2.1874508E-2,1.184056E-1,-2.7818803E-3,-1.6878259E-3,-2.1223813E-4,-1.2934363E-3,5.4696004E-4,-2.6516983E-4,1.7071719E-3,8.6457777E-4],"categories":[],"categories_nodes":[],"categories_segments":[],"categories_sizes":[],"default_left":[0,0,0,0,0,0,0,0,0,0,0,0,0,0,0],"id":65,"left_children":[1,3,5,7,9,11,13,-1,-1,-1,-1,-1,-1,-1,-1],"loss_changes":[4.610474E2,8.966583E1,7.6685196E1,1.3163513E1,4.674504E1,2.3533487E1,3.082782E1,0E0,0E0,0E0,0E0,0E0,0E0,0E0,0E0],"parents":[2147483647,0,0,1,1,2,2,3,3,4,4,5,5,6,6],"right_children":[2,4,6,8,10,12,14,-1,-1,-1,-1,-1,-1,-1,-1],"split_conditions":[-3.3225003E-1,-6.8714035E-1,8.9804515E-2,-8.9902574E-1,1.8372586E-1,2.3207381E-1,-4.7593063E-1,-2.7818803E-3,-1.6878259E-3,-2.1223813E-4,-1.2934363E-3,5.4696004E-4,-2.6516983E-4,1.7071719E-3,8.6457777E-4],"split_indices":[8,8,8,8,2,7,12,0,0,0,0,0,0,0,0],"split_type":[0,0,0,0,0,0,0,0,0,0,0,0,0,0,0],"sum_hessian":[5.917141E4,2.5742678E4,3.342873E4,8.466818E3,1.727586E4,1.4789644E4,1.8639088E4,1.3603699E3,7.1064487E3,1.0955481E4,6.320379E3,8.824468E3,5.965176E3,7.047099E3,1.1591989E4],"tree_param":{"num_deleted":"0","num_feature":"17","num_nodes":"15","size_leaf_vector":"1"}},{"base_weights":[7.273611E-4,-1.03345305E-1,1.2070574E-1,-1.4984298E-1,-3.346856E-2,6.669669E-2,2.136188E-1,-2.3260321E-3,-1.2349681E-3,-2.072926E-4,-8.87701E-4,3.584401E-4,9.421718E-4,1.9578708E-3,3.6383572E-3],"categories":[],"categories_nodes":[],"categories_segments":[],"categories_sizes":[],"default_left":[0,0,0,0,0,0,0,0,0,0,0,0,0,0,0],"id":66,"left_children":[1,3,5,7,9,11,13,-1,-1,-1,-1,-1,-1,-1,-1],"loss_changes":[7.384834E2,1.02676056E2,1.3752621E2,4.09357E1,8.805269E0,1.4618317E1,2.6114594E1,0E0,0E0,0E0,0E0,0E0,0E0,0E0,0E0],"parents":[2147483647,0,0,1,1,2,2,3,3,4,4,5,5,6,6],"right_children":[2,4,6,8,10,12,14,-1,-1,-1,-1,-1,-1,-1,-1],"split_conditions":[-1.9060941E-1,-4.734708E-1,5.651206E-1,-7.815287E-1,9.847149E-1,-9.612412E-2,1.5377995E0,-2.3260321E-3,-1.2349681E-3,-2.072926E-4,-8.87701E-4,3.584401E-4,9.421718E-4,1.9578708E-3,3.6383572E-3],"split_indices":[8,8,8,8,1,13,5,0,0,0,0,0,0,0,0],"split_type":[0,0,0,0,0,0,0,0,0,0,0,0,0,0,0],"sum_hessian":[5.9131305E4,3.1660469E4,2.7470836E4,1.8998426E4,1.2662045E4,1.7384705E4,1.0086131E4,4.5689756E3,1.4429449E4,1.0311611E4,2.3504329E3,8.218714E3,9.165991E3,9.032132E3,1.0539987E3],"tree_param":{"num_deleted":"0","num_feature":"17","num_nodes":"15","size_leaf_vector":"1"}},{"base_weights":[-1.4965235E-3,2.1352682E-1,-1.7387614E-1,3.488895E-1,1.4336123E-1,-9.588622E-2,-3.4959856E-1,5.256263E-3,3.2082829E-3,1.717514E-3,5.981849E-4,-1.9824944E-4,-1.5256823E-3,-2.7661165E-3,-4.263135E-3],"categories":[],"categories_nodes":[],"categories_segments":[],"categories_sizes":[],"default_left":[0,0,0,0,0,0,0,0,0,0,0,0,0,0,0],"id":67,"left_children":[1,3,5,7,9,11,13,-1,-1,-1,-1,-1,-1,-1,-1],"loss_changes":[2.1846653E3,2.4832971E2,4.4776422E2,4.2669556E1,4.0713043E1,9.755423E1,5.4986694E1,0E0,0E0,0E0,0E0,0E0,0E0,0E0,0E0],"parents":[2147483647,0,0,1,1,2,2,3,3,4,4,5,5,6,6],"right_children":[2,4,6,8,10,12,14,-1,-1,-1,-1,-1,-1,-1,-1],"split_conditions":[-3.3225003E-1,-6.825157E-1,5.277835E-1,-9.12321E-1,-4.259822E-1,-8.780782E-2,1.1645495E0,5.256263E-3,3.2082829E-3,1.717514E-3,5.981849E-4,-1.9824944E-4,-1.5256823E-3,-2.7661165E-3,-4.263135E-3],"split_indices":[8,8,8,8,8,8,8,0,0,0,0,0,0,0,0],"split_type":[0,0,0,0,0,0,0,0,0,0,0,0,0,0,0],"sum_hessian":[5.893151E4,2.6219174E4,3.2712338E4,8.9393545E3,1.7279818E4,2.2666021E4,1.0046316E4,1.2078317E3,7.731523E3,1.2884166E4,4.3956533E3,9.688914E3,1.2977106E4,5.1667314E3,4.8795845E3],"tree_param":{"num_deleted":"0","num_feature":"17","num_nodes":"15","size_leaf_vector":"1"}},{"base_weights":[-2.6254726E-3,1.2052816E-1,-3.149808E-2,2.0596573E-1,8.737561E-2,7.582592E-3,-7.1341574E-2,2.3754588E-3,1.685227E-4,1.0297588E-3,1.416509E-4,-2.0684809E-5,1.1599321E-3,-1.1967673E-4,-8.61428E-4],"categories":[],"categories_nodes":[],"categories_segments":[],"categories_sizes":[],"default_left":[0,0,0,0,0,0,0,0,0,0,0,0,0,0,0],"id":68,"left_children":[1,3,5,7,9,11,13,-1,-1,-1,-1,-1,-1,-1,-1],"loss_changes":[2.1015115E2,3.1404617E1,7.465756E1,1.839029E1,9.129375E0,2.5409037E1,2.0753815E1,0E0,0E0,0E0,0E0,0E0,0E0,0E0,0E0],"parents":[2147483647,0,0,1,1,2,2,3,3,4,4,5,5,6,6],"right_children":[2,4,6,8,10,12,14,-1,-1,-1,-1,-1,-1,-1,-1],"split_conditions":[-6.1240286E-1,-1.0869582E0,-1.9366695E-2,1.5377995E0,3.3454984E-1,4.6036354E-1,-3.233435E-1,2.3754588E-3,1.685227E-4,1.0297588E-3,1.416509E-4,-2.0684809E-5,1.1599321E-3,-1.1967673E-4,-8.61428E-4],"split_indices":[11,7,3,5,2,7,0,0,0,0,0,0,0,0,0],"split_type":[0,0,0,0,0,0,0,0,0,0,0,0,0,0,0],"sum_hessian":[5.9116207E4,1.1217674E4,4.7898535E4,3.120247E3,8.0974263E3,2.4170115E4,2.3728418E4,2.6681267E3,4.521202E2,6.662118E3,1.4353083E3,2.219034E4,1.979777E3,4.7501597E3,1.897826E4],"tree_param":{"num_deleted":"0","num_feature":"17","num_nodes":"15","size_leaf_vector":"1"}},{"base_weights":[6.673647E-4,-1.0369282E-1,1.2020006E-1,-1.498515E-1,-3.6411673E-2,7.324828E-2,2.0737289E-1,-2.1785514E-3,-1.1858144E-3,-1.2678542E-3,-2.9504806E-4,3.628748E-4,9.949185E-4,1.7557838E-3,2.8768936E-3],"categories":[],"categories_nodes":[],"categories_segments":[],"categories_sizes":[],"default_left":[0,0,0,0,0,0,0,0,0,0,0,0,0,0,0],"id":69,"left_children":[1,3,5,7,9,11,13,-1,-1,-1,-1,-1,-1,-1,-1],"loss_changes":[7.385504E2,9.7934326E1,1.1260916E2,3.937091E1,7.8614864E0,1.726094E1,2.3930695E1,0E0,0E0,0E0,0E0,0E0,0E0,0E0,0E0],"parents":[2147483647,0,0,1,1,2,2,3,3,4,4,5,5,6,6],"right_children":[2,4,6,8,10,12,14,-1,-1,-1,-1,-1,-1,-1,-1],"split_conditions":[-1.9060941E-1,-4.7823504E-1,6.045573E-1,-7.457028E-1,-1.4065199E0,-2.2789492E-1,6.9221884E-1,-2.1785514E-3,-1.1858144E-3,-1.2678542E-3,-2.9504806E-4,3.628748E-4,9.949185E-4,1.7557838E-3,2.8768936E-3],"split_indices":[8,8,8,8,1,6,5,0,0,0,0,0,0,0,0],"split_type":[0,0,0,0,0,0,0,0,0,0,0,0,0,0,0],"sum_hessian":[5.919371E4,3.1598426E4,2.7595283E4,1.8728568E4,1.2869858E4,1.7948691E4,9.646592E3,5.8798105E3,1.2848758E4,8.973113E2,1.1972547E4,7.473381E3,1.0475311E4,6.931164E3,2.7154275E3],"tree_param":{"num_deleted":"0","num_feature":"17","num_nodes":"15","size_leaf_vector":"1"}},{"base_weights":[-1.6788658E-3,2.1164332E-1,-1.7534009E-1,3.5146642E-1,1.3639504E-1,-9.8151244E-2,-3.4664997E-1,5.4379916E-3,3.2210536E-3,1.6711857E-3,5.2682054E-4,-3.4077774E-4,-1.6553373E-3,-2.7789655E-3,-4.183833E-3],"categories":[],"categories_nodes":[],"categories_segments":[],"categories_sizes":[],"default_left":[0,0,0,0,0,0,0,0,0,0,0,0,0,0,0],"id":70,"left_children":[1,3,5,7,9,11,13,-1,-1,-1,-1,-1,-1,-1,-1],"loss_changes":[2.1927175E3,2.7871643E2,4.3087006E2,5.068994E1,4.4179077E1,9.6940475E1,4.8681763E1,0E0,0E0,0E0,0E0,0E0,0E0,0E0,0E0],"parents":[2147483647,0,0,1,1,2,2,3,3,4,4,5,5,6,6],"right_children":[2,4,6,8,10,12,14,-1,-1,-1,-1,-1,-1,-1,-1],"split_conditions":[-3.2744935E-1,-6.7764604E-1,5.277835E-1,-9.12321E-1,-4.259822E-1,-2.0708267E-2,1.1645495E0,5.4379916E-3,3.2210536E-3,1.6711857E-3,5.2682054E-4,-3.4077774E-4,-1.6553373E-3,-2.7789655E-3,-4.183833E-3],"split_indices":[8,8,8,8,8,8,8,0,0,0,0,0,0,0,0],"split_type":[0,0,0,0,0,0,0,0,0,0,0,0,0,0,0],"sum_hessian":[5.9180348E4,2.6554475E4,3.2625871E4,9.279699E3,1.7274775E4,2.2501047E4,1.0124824E4,1.2128865E3,8.066813E3,1.2624518E4,4.6502583E3,1.1545188E4,1.0955858E4,5.1893545E3,4.93547E3],"tree_param":{"num_deleted":"0","num_feature":"17","num_nodes":"15","size_leaf_vector":"1"}},{"base_weights":[2.0671915E-3,-9.926877E-2,7.8703E-2,-1.675549E-1,-4.5803446E-2,3.4547817E-2,1.2934206E-1,-2.7605551E-3,-1.5229633E-3,4.2040573E-4,-6.733151E-4,6.5900036E-4,-1.422512E-4,1.6928397E-3,8.183083E-4],"categories":[],"categories_nodes":[],"categories_segments":[],"categories_sizes":[],"default_left":[0,0,0,0,0,0,0,0,0,0,0,0,0,0,0],"id":71,"left_children":[1,3,5,7,9,11,13,-1,-1,-1,-1,-1,-1,-1,-1],"loss_changes":[4.589246E2,9.263542E1,7.506554E1,1.784143E1,2.7053236E1,2.757455E1,2.9405273E1,0E0,0E0,0E0,0E0,0E0,0E0,0E0,0E0],"parents":[2147483647,0,0,1,1,2,2,3,3,4,4,5,5,6,6],"right_children":[2,4,6,8,10,12,14,-1,-1,-1,-1,-1,-1,-1,-1],"split_conditions":[-3.369998E-1,-6.3052934E-1,2.2058697E-1,-8.9902574E-1,-8.010466E-1,5.95925E-2,4.9258865E-2,-2.7605551E-3,-1.5229633E-3,4.2040573E-4,-6.733151E-4,6.5900036E-4,-1.422512E-4,1.6928397E-3,8.183083E-4],"split_indices":[8,8,8,8,9,2,11,0,0,0,0,0,0,0,0],"split_type":[0,0,0,0,0,0,0,0,0,0,0,0,0,0,0],"sum_hessian":[5.9086973E4,2.543698E4,3.364999E4,1.115737E4,1.4279611E4,1.799086E4,1.5659131E4,1.357002E3,9.800368E3,2.800621E3,1.147899E4,1.0962616E4,7.0282427E3,8.488839E3,7.1702925E3],"tree_param":{"num_deleted":"0","num_feature":"17","num_nodes":"15","size_leaf_vector":"1"}},{"base_weights":[1.5784914E-3,-1.190658E-2,1.7509653E-1,1.4387542E-1,-2.6080968E-2,2.8948122E-1,1.3566196E-1,1.2255152E-3,3.1018367E-3,1.3848162E-3,-3.334834E-4,6.7385966E-3,2.6055013E-3,8.625426E-4,2.07046E-3],"categories":[],"categories_nodes":[],"categories_segments":[],"categories_sizes":[],"default_left":[0,0,0,0,0,0,0,0,0,0,0,0,0,0,0],"id":72,"left_children":[1,3,5,7,9,11,13,-1,-1,-1,-1,-1,-1,-1,-1],"loss_changes":[1.3836195E2,1.2090104E2,1.8613861E1,1.5566383E1,5.9999344E1,1.0223923E1,1.0857807E1,0E0,0E0,0E0,0E0,0E0,0E0,0E0,0E0],"parents":[2147483647,0,0,1,1,2,2,3,3,4,4,5,5,6,6],"right_children":[2,4,6,8,10,12,14,-1,-1,-1,-1,-1,-1,-1,-1],"split_conditions":[1.2132651E0,-1.2086905E0,-1.8606801E-1,3.2488117E-1,-1.1859336E0,-1.4993284E0,1.5591341E0,1.2255152E-3,3.1018367E-3,1.3848162E-3,-3.334834E-4,6.7385966E-3,2.6055013E-3,8.625426E-4,2.07046E-3],"split_indices":[12,13,2,11,12,13,13,0,0,0,0,0,0,0,0],"split_type":[0,0,0,0,0,0,0,0,0,0,0,0,0,0,0],"sum_hessian":[5.9052293E4,5.4792918E4,4.259375E3,4.5600376E3,5.023288E4,1.0773446E3,3.1820305E3,4.0548281E3,5.0520926E2,2.1149104E3,4.811797E4,6.519112E1,1.01215344E3,1.8952819E3,1.2867488E3],"tree_param":{"num_deleted":"0","num_feature":"17","num_nodes":"15","size_leaf_vector":"1"}},{"base_weights":[-6.523032E-4,2.1279913E-1,-1.757325E-1,3.4457058E-1,1.3620317E-1,-9.631567E-2,-3.5288066E-1,5.423348E-3,3.1651147E-3,1.6924127E-3,5.55835E-4,-4.599088E-4,-1.7997464E-3,-2.9780748E-3,-4.3588458E-3],"categories":[],"categories_nodes":[],"categories_segments":[],"categories_sizes":[],"default_left":[0,0,0,0,0,0,0,0,0,0,0,0,0,0,0],"id":73,"left_children":[1,3,5,7,9,11,13,-1,-1,-1,-1,-1,-1,-1,-1],"loss_changes":[2.2054229E3,2.6767017E2,4.5554297E2,5.2479248E1,4.4552734E1,9.403288E1,4.447107E1,0E0,0E0,0E0,0E0,0E0,0E0,0E0,0E0],"parents":[2147483647,0,0,1,1,2,2,3,3,4,4,5,5,6,6],"right_children":[2,4,6,8,10,12,14,-1,-1,-1,-1,-1,-1,-1,-1],"split_conditions":[-3.2744935E-1,-6.682664E-1,5.277835E-1,-9.12321E-1,-4.3054092E-1,7.249236E-2,1.3644525E0,5.423348E-3,3.1651147E-3,1.6924127E-3,5.55835E-4,-4.599088E-4,-1.7997464E-3,-2.9780748E-3,-4.3588458E-3],"split_indices":[8,8,8,8,8,8,8,0,0,0,0,0,0,0,0],"split_type":[0,0,0,0,0,0,0,0,0,0,0,0,0,0,0],"sum_hessian":[5.9005086E4,2.6585824E4,3.2419264E4,9.761732E3,1.6824092E4,2.2393469E4,1.0025794E4,1.1971042E3,8.564628E3,1.1920959E4,4.903133E3,1.3994703E4,8.398767E3,6.0479565E3,3.9778374E3],"tree_param":{"num_deleted":"0","num_feature":"17","num_nodes":"15","size_leaf_vector":"1"}},{"base_weights":[2.4556094E-3,-9.733673E-2,7.78158E-2,-1.5836202E-1,-4.2165805E-2,3.391609E-2,1.309791E-1,-2.2817827E-3,-1.3284327E-3,2.5232835E-4,-7.242633E-4,7.8731944E-4,-2.600435E-5,1.7172467E-3,8.160222E-4],"categories":[],"categories_nodes":[],"categories_segments":[],"categories_sizes":[],"default_left":[0,0,0,0,0,0,0,0,0,0,0,0,0,0,0],"id":74,"left_children":[1,3,5,7,9,11,13,-1,-1,-1,-1,-1,-1,-1,-1],"loss_changes":[4.4379614E2,8.523584E1,7.829857E1,2.0943512E1,2.727957E1,3.0248724E1,3.0252869E1,0E0,0E0,0E0,0E0,0E0,0E0,0E0,0E0],"parents":[2147483647,0,0,1,1,2,2,3,3,4,4,5,5,6,6],"right_children":[2,4,6,8,10,12,14,-1,-1,-1,-1,-1,-1,-1,-1],"split_conditions":[-3.369998E-1,-6.117689E-1,2.4387911E-1,-8.226183E-1,-3.8095436E-1,-9.612412E-2,5.5417906E-2,-2.2817827E-3,-1.3284327E-3,2.5232835E-4,-7.242633E-4,7.8731944E-4,-2.600435E-5,1.7172467E-3,8.160222E-4],"split_indices":[8,8,8,8,9,6,11,0,0,0,0,0,0,0,0],"split_type":[0,0,0,0,0,0,0,0,0,0,0,0,0,0,0],"sum_hessian":[5.90051E4,2.538088E4,3.362422E4,1.2038006E4,1.3342875E4,1.8431428E4,1.519279E4,3.2011497E3,8.836856E3,4.124422E3,9.218453E3,8.285023E3,1.0146405E4,8.30604E3,6.8867495E3],"tree_param":{"num_deleted":"0","num_feature":"17","num_nodes":"15","size_leaf_vector":"1"}},{"base_weights":[4.139618E-3,-9.534538E-2,1.2495096E-1,-1.3669682E-1,-1.9782895E-2,7.276507E-2,2.0931445E-1,-2.092454E-3,-1.0991697E-3,-1.02800324E-4,-8.377379E-4,9.494235E-4,3.5807467E-4,1.9399876E-3,3.790266E-3],"categories":[],"categories_nodes":[],"categories_segments":[],"categories_sizes":[],"default_left":[0,0,0,0,0,0,0,0,0,0,0,0,0,0,0],"id":75,"left_children":[1,3,5,7,9,11,13,-1,-1,-1,-1,-1,-1,-1,-1],"loss_changes":[7.113096E2,1.0122427E2,1.1732263E2,4.0294342E1,6.8897233E0,1.3400063E1,2.558612E1,0E0,0E0,0E0,0E0,0E0,0E0,0E0,0E0],"parents":[2147483647,0,0,1,1,2,2,3,3,4,4,5,5,6,6],"right_children":[2,4,6,8,10,12,14,-1,-1,-1,-1,-1,-1,-1,-1],"split_conditions":[-1.6648959E-1,-4.3054092E-1,5.651206E-1,-7.5151473E-1,1.2010725E0,2.878683E-1,1.7055956E0,-2.092454E-3,-1.0991697E-3,-1.02800324E-4,-8.377379E-4,9.494235E-4,3.5807467E-4,1.9399876E-3,3.790266E-3],"split_indices":[8,8,8,8,1,5,5,0,0,0,0,0,0,0,0],"split_type":[0,0,0,0,0,0,0,0,0,0,0,0,0,0,0],"sum_hessian":[5.9170086E4,